tree
version=v4
num_class=1
num_tree_per_iteration=1
label_index=0
max_feature_idx=21
objective=lambdarank
feature_names=cosine_similarity experience_fit_score is_ml_engineer production_ml_score domain_alignment consulting_penalty behavioral_multiplier consistency_score location_score notice_penalty github_activity ce_score open_to_work_score response_rate_score recency_score response_speed_score interview_reliability active_job_seeking market_validation skill_depth_score education_tier_score profile_completeness
feature_infos=[0.67761999368667603:0.82460898160934448] [0:1] [0:1] [0:1] [0:1] [0:1] [0.16599999368190765:0.90600001811981201] none [0:1] [0:1] [0:0.96899998188018799] [0.00042799999937415123:0.85399198532104492] [0:1] [0.039999999105930328:0.93000000715255737] [0.10000000149011612:0.75] [0.10000000149011612:1] [0.31000000238418579:0.99000000953674316] [0.20000000298023224:1] [0:1] [0:1] [0.10000000149011612:1] [0.28499999642372131:0.99699997901916504]
tree_sizes=3492 3443 3443 3457 3455 3461 3463 3480 3494 3495 3495 3506 3510 3504 3508 3508 3500 3505 3502 3504 3518 3513 3523 3523 3530 3533 3536 3543 3533 3551 3539 3556 3560 3552 3545 3550 3564 3555 3569 3562 3566 3557 3563 3555 3561 3568 3561 3572 3570 3582 3588 3579 3590 3597 3594 3600 3599 3599 3606 3612 3603 3625 3618 3607 3618 3618 3615 3607 3623 3610 3606 3620 3624 3625 3618 3629 3628 3617 3619 3618 3627 3635 3620 3633 3632 3640 3631 3642 3644 3645 3409 3186 2973 2624 2507 2517 2395 2271 2173 2163

Tree=0
num_leaves=31
num_cat=0
split_feature=11 19 6 19 9 8 4 13 1 6 6 0 3 21 0 5 5 11 0 13 4 0 8 4 2 20 0 4 4 9
split_gain=6.11539 0.274534 0.13383 0.0821532 0.177087 0.0719098 0.0436837 0.0760384 0.0479636 0.036664 0.0258198 0.0285587 0.0199241 0.0188678 0.0193898 0.0100172 0.0187652 0.00854927 0.0154514 0.00265125 0.00219195 0.0032367 0.00198334 0.00187043 0.00145227 0.00137525 0.00104773 0.000703249 0.00192657 0.00120175
threshold=0.0052470001392066487 1.0000000180025095e-35 0.24299999326467517 0.43425925076007849 0.37500000000000006 0.84999999403953563 0.35833333432674414 0.69499999284744274 0.97999998927116405 0.7775000035762788 0.65749999880790722 0.7187899947166444 0.087822496891021742 0.51550000905990612 0.78525197505950939 0.15695000439882281 0.27894999086856848 0.00045799999497830873 0.70563250780105602 0.48499999940395361 0.4083333313465119 0.72347798943519603 0.59999999403953563 0.95833334326744091 0.75000000000000011 0.80000001192092907 0.70265901088714611 0.46666666865348821 0.52500000596046459 0.62500000000000011
decision_type=2 2 2 2 2 2 2 2 2 2 2 2 2 2 2 2 2 2 2 2 2 2 2 2 2 2 2 2 2 2
left_child=1 10 -3 4 9 6 22 8 -8 -2 17 -12 -7 14 -5 19 -17 18 -1 23 21 -21 -4 -15 -11 -25 -24 -22 -29 -30
right_child=3 2 5 13 -6 12 7 -9 -10 24 11 -13 -14 15 -16 16 -18 -19 -20 20 27 -23 26 25 -26 -27 -28 28 29 -31
leaf_value=-0.024462656310468109 -0.09999999999996477 0.080067021004149808 -0.049443397745462657 -0.099999999999959732 -0.099999999999994288 -0.030149607395777767 -0.099999999999978245 -0.099999999999991609 0.075286750579275238 0.076835892561822439 -0.09999999999999401 -0.0072892929658481837 -0.099999999999998729 0.076781542065248384 0.0748064064156682 -0.099999999999942482 0.074624115557247045 -0.099999999999999867 -0.099999999999994607 0.096581624471271457 0.099385704273432476 0.074316755015989833 -0.042966404193929622 0.096041481812953966 0.099999999999997369 0.074531227458313629 -0.022482165007805165 0.073475138650868882 0.096866571919930478 0.077438922424581155
leaf_weight=0.010674934834242089 0.0025205579586325957 0.020241441205143929 0.210613036993891 0.0024805346038192502 0.017461538081988692 0.011743173003196716 0.0045922149438410989 0.011900518089532852 0.025987541768699884 0.00824326416477561 0.016663845628499985 0.016562501899898052 0.078140765428543091 0.028900497825816274 0.0044006570242345333 0.001739990198984743 0.013282735832035542 0.68668888451065868 0.018506744876503944 0.041652027517557144 0.2471129959449172 0.026842358522117138 0.015700122341513634 0.045453649945557117 0.037766743451356888 0.0088828504085540771 0.010362567380070686 0.0092103122733533382 0.49234585487283766 0.0080908334348350763
leaf_count=1 1 1 3 1 8 1 2 6 6 2 1 2 8 7 1 1 3 18 1 3 8 6 1 3 1 2 1 2 30 2
internal_value=-1.81595e-09 -0.0791732 -0.0451118 0.0904558 0.0365475 -0.0519777 -0.0394537 0.00723263 0.0489636 0.0856779 -0.0968737 -0.053786 -0.0908742 0.0942794 0.0117921 0.0948941 0.0543985 -0.0988736 -0.0723677 0.0955637 0.0964215 0.0878562 -0.0478333 0.0870588 0.0958499 0.092525 -0.0348218 0.0971968 0.0961354 0.0965525
internal_weight=2.13477 1.13838 0.389281 0.996387 0.0659921 0.36904 0.279156 0.0424803 0.0305798 0.0485306 0.749097 0.0332263 0.0898839 0.930395 0.00688119 0.923514 0.0150227 0.715871 0.0291817 0.908491 0.825254 0.0684944 0.236676 0.083237 0.04601 0.0543365 0.0260627 0.75676 0.509647 0.500437
internal_count=133 52 29 81 12 28 19 14 8 4 23 3 9 69 2 67 4 20 2 63 51 9 5 12 3 5 2 42 34 32
is_linear=0
shrinkage=0.05


Tree=1
num_leaves=31
num_cat=0
split_feature=8 6 2 13 10 0 13 4 16 17 21 11 13 0 6 13 0 0 3 4 19 11 11 6 0 6 0 6 1 0
split_gain=5.50283 3.41257 1.42693 1.39004 0.740786 0.657614 0.608853 0.500751 0.479169 0.332002 0.263633 0.133894 0.29189 0.112355 0.0961364 0.0571286 0.0918216 0.280687 0.0508678 0.0352182 0.0576467 0.0243593 0.0172305 0.026222 0.0213265 0.0149277 0.00886595 0.00872549 0.00663231 0.00133725
threshold=0.84999999403953563 0.74149999022483837 0.75000000000000011 0.84499999880790722 0.4264999926090241 0.75293251872062694 0.80500000715255748 0.35833333432674414 0.59499999880790722 0.84999999403953563 0.92300000786781322 0.0145350000821054 0.88499999046325695 0.8004559874534608 0.81799998879432689 0.78499999642372142 0.732892006635666 0.78525197505950939 0.40443000197410589 0.52500000596046459 0.8904513716697694 0.013442500028759243 0.034738499671220786 0.74149999022483837 0.7814529836177827 0.73774999380111705 0.71718597412109386 0.85249999165534984 0.97999998927116405 0.80795350670814525
decision_type=2 2 2 2 2 2 2 2 2 2 2 2 2 2 2 2 2 2 2 2 2 2 2 2 2 2 2 2 2 2
left_child=4 3 -3 19 22 10 9 -4 -9 13 18 12 21 -7 25 16 -13 -18 -6 -2 -21 -10 -1 -24 -25 -11 -22 -26 -12 -16
right_child=1 2 7 -5 5 6 -8 8 11 14 28 15 -14 -15 29 -17 17 -19 -20 20 26 -23 23 24 27 -27 -28 -29 -30 -31
leaf_value=-0.096080032212190428 -0.094810119910583079 -0.098807706301335105 -0.093246932389441622 0.090086418607435922 -0.043789479512953276 0.0036798873009980509 0.098432137265475089 -0.097492867758909904 -0.093303847258706427 -0.059988353767013718 -0.022702050260770337 0.09839325016096015 0.098296546750432326 0.098447201459051503 -0.027051795194287499 0.098578798570228887 -0.063771057396899075 0.098433965011141489 -0.097937943447403614 -0.044587329086328009 -0.068201448637986536 -0.019638333933803737 -0.095706139641127147 -0.05085730009648165 -0.093721315849696105 -0.095508925495733296 -0.094311035970027712 -0.065396174719819344 -0.00067579561443585254 -0.015252395626798428
leaf_weight=0.65712381247431062 0.28761479351669583 0.11183506809175048 0.038894940167665815 0.14551783306524158 0.049532116390764491 0.085123471915721893 0.13791980221867561 0.034294024109840726 0.014584240037948226 0.041471254080533981 0.063720980659127235 0.16064320504665364 0.10943622142076492 0.049442671239376068 0.045643355697393417 1.5770350024104116 0.041700191795825958 0.073998883366584778 0.34875125018879771 0.12681702524423599 0.042107585817575455 0.048680320382118225 0.20234982436522841 0.08336145430803299 0.077680155634880066 0.10314150713384151 0.142701031640172 0.041828878223896027 0.073709636926651001 0.050667408853769302
leaf_count=47 21 4 1 2 2 1 2 2 2 1 2 1 1 1 1 4 1 1 11 3 1 1 6 2 2 3 4 1 1 1
internal_value=3.91472e-09 0.0440376 0.0752173 -0.0485314 -0.0616486 -0.0318467 0.00859006 0.0844882 0.0878434 -0.0244095 -0.0705999 0.0909805 0.0488732 0.0384996 -0.0595469 0.0949041 0.0739335 0.0399721 -0.0912038 -0.0821929 -0.0705478 -0.0366203 -0.0910796 -0.0829707 -0.0702679 -0.0853225 -0.0883621 -0.0838073 -0.0108885 -0.0208443
internal_weight=5.06733 2.95586 2.2111 0.744758 2.11147 1.04912 0.513409 2.09927 2.06037 0.37549 0.535714 2.02608 0.172701 0.134566 0.240924 1.85338 0.276342 0.115699 0.398283 0.59924 0.311626 0.0632646 1.06234 0.40522 0.20287 0.144613 0.184809 0.119509 0.137431 0.0963108
internal_count=133 49 18 31 84 26 10 14 13 8 16 11 4 2 6 7 3 2 13 29 8 3 58 11 5 4 5 3 3 2
is_linear=0
shrinkage=0.05


Tree=2
num_leaves=31
num_cat=0
split_feature=11 13 19 8 9 2 0 6 3 13 20 21 0 0 11 4 0 13 0 10 4 4 19 6 1 0 0 12 9 0
split_gain=4.05172 1.68435 1.12611 0.935042 0.547991 0.519424 0.434987 0.311091 0.276551 0.264462 0.174371 0.144075 0.116764 0.115405 0.115038 0.0994866 0.149677 0.0611666 0.0577024 0.0484583 0.0295331 0.00396227 0.00284605 0.0011163 0.00109581 0.000672987 0.000558319 0.000518651 0.000352054 0.000246415
threshold=0.010903500020504 0.48499999940395361 0.79067459702491771 0.84999999403953563 1.0000000180025095e-35 0.75000000000000011 0.7104800045490266 0.7775000035762788 0.65846002101898204 0.75000000000000011 0.80000001192092907 0.79750001430511486 0.73111149668693554 0.75711500644683849 0.026449000462889675 0.52500000596046459 0.78525197505950939 0.64499998092651378 0.7153185009956361 0.61849999427795421 0.35833333432674414 0.95833334326744091 0.95982140302658092 0.55899998545646679 0.97999998927116405 0.7814529836177827 0.72582849860191356 1.0000000180025095e-35 0.37500000000000006 0.76667499542236339
decision_type=2 2 2 2 2 2 2 2 2 2 2 2 2 2 2 2 2 2 2 2 2 2 2 2 2 2 2 2 2 2
left_child=2 -2 23 4 8 -5 14 -4 13 10 29 19 -12 -3 -7 20 -17 -13 -9 -10 -8 -19 -14 -1 27 -24 -26 -25 -28 -6
right_child=1 3 7 5 9 6 15 18 11 -11 12 17 22 -15 -16 16 -18 21 -20 -21 -22 -23 25 24 26 -27 28 -29 -30 -31
leaf_value=-0.08578915507909407 -0.091849740754412823 0.021330902528687204 -0.092363744295157132 -0.091967859213926209 -0.091929763322297325 0.027685289498577154 0.044531305713052506 0.0883086177180403 0.022959124661552546 -0.092156926376022685 -0.091054839904773172 -0.09110753916432468 0.022262402067727546 -0.092486459055797721 -0.091549870353056895 0.023658574422620857 0.088255676248274323 0.023685947862191928 0.019287089772359003 0.088124863204852855 0.088523255791038716 0.042340374330480768 0.030357446225863224 -0.092701701532491576 -0.086062858424810582 0.03986974912797793 -0.092010323527064536 -0.085611955776426621 -0.088072999817040837 -0.085032457931360966
leaf_weight=0.51823621243238427 0.24039650056511197 0.041548524051904789 0.035569598898291477 0.048642709851264843 0.02224099263548851 0.036506094038486592 0.039492532610893138 0.12078894674777985 0.032594539225101471 0.14409600384533405 0.023458976298570633 0.011522058397531509 0.10399036109447479 0.048002410680055618 0.04536865558475256 0.1741763912141322 0.18483877182006836 0.11165923252701759 0.040411386638879776 0.22865188866853714 1.1228812411427496 0.038205448538064957 0.037519004195928574 0.02890312485396862 0.061377710662782192 0.036863252520561218 0.28513272292912006 0.2399657154455781 0.070888420566916466 0.030996425077319145
leaf_count=33 12 1 2 2 1 1 1 1 1 7 2 1 3 2 3 5 2 3 1 3 5 1 1 1 4 1 12 15 4 2
internal_value=2.1041e-09 0.0346985 -0.0694243 0.0465669 0.00590945 0.0689974 0.073881 0.0414737 0.0401371 -0.0380094 -0.00741987 0.0570492 0.0138122 -0.0396792 -0.0383856 0.0799228 0.0569164 0.0199065 0.0710056 0.0799944 0.0870286 0.0284416 0.0276039 -0.0875408 -0.0888635 0.0350717 -0.0904671 -0.0863741 -0.0912264 -0.0879139
internal_weight=4.20493 2.80365 1.40127 2.56326 0.911349 1.65191 1.60326 0.19677 0.512184 0.399165 0.255069 0.422633 0.201832 0.0895509 0.0818747 1.52139 0.359015 0.161387 0.1612 0.261246 1.16237 0.149865 0.178373 1.2045 0.686268 0.0743823 0.417399 0.268869 0.356021 0.0532374
internal_count=133 60 73 48 29 19 17 4 12 17 10 9 7 3 4 13 7 5 2 4 6 4 5 69 36 2 20 16 16 3
is_linear=0
shrinkage=0.05


Tree=3
num_leaves=31
num_cat=0
split_feature=11 10 6 8 16 17 13 0 3 6 4 9 10 10 3 3 16 1 0 0 0 0 11 0 0 0 0 0 0 1
split_gain=3.48291 1.49638 0.904138 0.564938 0.52916 0.393847 0.217109 0.185855 0.137797 0.191854 0.0987566 0.0973952 0.0896133 0.084306 0.0649518 0.325044 0.0595901 0.08085 0.0514851 0.0484625 0.0353078 0.0106801 0.00237963 0.00100734 0.000393272 0.000363563 0.00034418 0.000325127 0.000315287 0.000237371
threshold=0.0072455001063644895 0.23799999803304675 0.74149999022483837 0.59999999403953563 0.83499997854232799 0.35000000149011617 0.48499999940395361 0.70265901088714611 0.65846002101898204 0.68399998545646679 0.52500000596046459 1.0000000180025095e-35 0.50850000977516185 0.3445000052452088 0.30942501127719885 0.91547000408172619 0.88499999046325695 0.97999998927116405 0.76667499542236339 0.80795350670814525 0.7153185009956361 0.78221049904823314 0.034738499671220786 0.75353500247001659 0.7153185009956361 0.74537000060081493 0.78319251537323009 0.7814529836177827 0.75293251872062694 0.65333333611488353
decision_type=2 2 2 2 2 2 2 2 2 2 2 2 2 2 2 2 2 2 2 2 2 2 2 2 2 2 2 2 2 2
left_child=25 5 6 4 11 -2 -3 -5 -7 29 -11 19 -8 -6 -9 18 -17 -18 -16 -4 -13 23 27 28 -24 -1 -27 -12 -14 -10
right_child=1 2 3 7 13 8 12 14 9 10 22 20 21 -15 15 16 17 -19 -20 -21 -22 -23 24 -25 -26 26 -28 -29 -30 -31
leaf_value=-0.080787784859805423 0.082218408179538918 -0.085024349567324062 0.082338854471415146 -0.085160278364545192 0.005677170732563408 -0.083589215959709973 -0.084856574157962786 0.082946043996911606 -0.079964152245501741 -0.082750410785820405 0.011078394312947867 -0.084297032547328454 0.013673890464843359 -0.085317159985607779 0.0051571477481279684 0.08281175527700009 0.082154348155662887 0.00065933332871028535 -0.082800063601869464 0.019998458561709828 0.016721933428913632 -0.013911231448780807 0.0078509195132628815 0.021213687725981492 0.0014409613977203557 -0.084338219478508017 -0.080650774757198937 0.017783189274200587 0.0081206861122274446 -0.084894545717838041
leaf_weight=0.71995344758033786 0.059055272489786148 0.11213131807744536 0.1497838273644444 0.018477598205208889 0.032152134925127029 0.22828876413404975 0.02854213397949934 0.90780215710401513 0.033230423927307129 0.035967567935585976 0.034199517220258713 0.0097450064495205879 0.10810193046927452 0.12220192793756723 0.030950784683227539 0.4473574310541153 0.063986167311668396 0.05803932249546051 0.035974936559796333 0.039369061589241028 0.076963454484939575 0.040823135524988174 0.032805174589157104 0.04156770184636116 0.088437294587492943 0.16715047135949135 0.10183471441268921 0.038363359868526459 0.033474728465080261 0.091993005946278572
leaf_count=43 1 7 2 1 1 13 2 4 2 2 1 1 3 7 1 3 1 2 2 1 2 2 1 1 3 9 6 1 1 7
internal_value=-3.66774e-09 0.0268265 0.04526 0.0585054 0.00776928 -0.0408261 -0.027128 0.0724742 -0.0532838 -0.0337953 -0.00665982 0.0492488 -0.00141805 -0.0663629 0.0743606 0.0621119 0.0743638 0.0433926 -0.042123 0.0693637 0.0053686 0.00921525 0.00746153 0.0143702 0.00317534 -0.0813738 -0.0829422 0.0146232 0.0123609 -0.0835862
internal_weight=3.98872 2.99979 2.35744 1.9928 0.430215 0.64234 0.364641 1.56259 0.583285 0.354996 0.229773 0.275861 0.25251 0.154354 1.54411 0.636309 0.569383 0.122025 0.0669257 0.189153 0.0867085 0.223967 0.193805 0.183144 0.121242 0.988939 0.268985 0.0725629 0.141577 0.125223
internal_count=133 75 44 28 14 31 16 14 30 17 8 6 9 8 13 9 6 3 3 3 3 7 6 5 4 58 15 2 4 9
is_linear=0
shrinkage=0.05


Tree=4
num_leaves=31
num_cat=0
split_feature=11 3 3 6 8 9 0 16 1 11 15 0 15 0 4 4 10 3 11 1 0 8 0 4 4 19 3 6 0 0
split_gain=3.0955 1.40971 0.739307 0.644634 0.315802 0.289034 0.183357 0.177793 0.141461 0.141368 0.109504 0.097136 0.0851712 0.072857 0.0656258 0.0600356 0.0590423 0.0497055 0.0260017 0.0130875 0.0404799 0.00379094 0.0809018 0.00124568 0.000994377 0.000372758 0.000299673 0.000285867 0.000221468 0.000213056
threshold=0.0072455001063644895 0.27757000923156744 0.91547000408172619 0.74149999022483837 0.59999999403953563 0.37500000000000006 0.75155800580978405 0.82499998807907116 0.97999998927116405 0.022527500055730346 0.87500000000000011 0.80795350670814525 0.57500000298023235 0.78221049904823314 0.90833333134651195 0.858333319425583 0.74500000476837169 0.7639250159263612 0.010903500020504 0.97999998927116405 0.75353500247001659 0.84999999403953563 0.75293251872062694 0.69166666269302379 0.95833334326744091 0.43425925076007849 0.65846002101898204 0.75650000572204601 0.74537000060081493 0.7814529836177827
decision_type=2 2 2 2 2 2 2 2 2 2 2 2 2 2 2 2 2 2 2 2 2 2 2 2 2 2 2 2 2 2
left_child=28 4 6 9 -2 7 15 11 -9 18 14 21 -11 -7 25 23 27 -17 -4 20 -6 22 -5 -3 -13 -8 -25 -10 -1 -30
right_child=1 2 3 5 19 13 10 8 16 12 -12 24 -14 -15 -16 17 -18 -19 -20 -21 -22 -23 -24 26 -26 -27 -28 -29 29 -31
leaf_value=-0.076709754115388662 -0.0781288369034112 0.019238344623995221 -0.079045910272604603 -0.079018834840665478 0.07820079826258125 -0.080400532790259951 -0.077027723431903936 0.07761303899564137 -0.0021355954474612743 -0.079974925907327535 0.016120924515122828 0.01795559209649859 0.0076713909909939815 0.012123319625127334 -0.00014196123759391881 -0.080132676018474347 -0.079887141395001651 0.0041843641832064044 0.011403162315237348 0.078575719020157142 0.020438916050014289 0.078268552340918729 0.077824374357032877 0.012492621326032722 0.0059535460970219136 -0.080336523454962769 0.0067702702635977835 0.0036265480459265684 -0.079943817101248996 -0.077066393418107934
leaf_weight=0.71400963608175549 0.034224599599838146 0.040194921195506939 0.0085890516638755798 0.0087202396243810654 0.11409638822078705 0.051257239654660225 0.15415068343281746 0.061461739242076874 0.028194786980748177 0.16409773286432028 0.038166657090187073 0.039150446653366089 0.033351767808198929 0.036376383155584335 0.02868720144033432 0.041338471695780754 0.026787779293954372 0.030283413827419281 0.1060846783220768 0.88624231144785881 0.04131496325135231 0.35884285718202591 0.14384105056524277 0.035568274557590485 0.03086133673787117 0.1900736466050148 0.064130764454603195 0.090984748676419258 0.12134483829140663 0.13692235294729471
leaf_count=43 2 1 1 1 1 3 9 1 1 13 1 1 1 1 1 3 2 1 3 4 1 3 2 1 1 11 2 3 7 8
internal_value=4.55295e-10 0.0259863 -0.000941739 0.0221781 0.0713185 0.0441516 -0.04508 0.0537217 0.0139806 -0.0395263 -0.0645437 0.0678999 -0.0651703 -0.0419942 -0.0727996 -0.00725259 -0.0128128 -0.0444815 0.00462854 0.0762288 0.0628452 0.0754616 0.0688594 0.0118076 0.0126651 -0.0788548 0.00881176 0.00226337 -0.0771636 -0.0784183
internal_weight=3.85935 2.88707 1.8112 1.1886 1.07588 0.876479 0.622594 0.788845 0.207429 0.312123 0.411078 0.581416 0.19745 0.0876336 0.372912 0.211516 0.145967 0.0716219 0.114674 1.04165 0.155411 0.511404 0.152561 0.139894 0.0700118 0.344224 0.099699 0.11918 0.972277 0.258267
internal_count=133 75 67 37 8 19 30 15 7 18 22 8 14 4 21 8 6 4 4 6 2 6 3 4 2 20 3 4 58 15
is_linear=0
shrinkage=0.05


Tree=5
num_leaves=31
num_cat=0
split_feature=11 3 3 6 8 9 0 16 11 1 15 0 15 0 4 10 4 16 3 11 8 0 4 4 3 19 0 4 0 0
split_gain=2.77739 1.30787 0.604303 0.517531 0.278135 0.23692 0.164241 0.149574 0.122936 0.122597 0.0977391 0.0888724 0.0762141 0.0645496 0.059968 0.0505902 0.0498337 0.0491966 0.0431198 0.0215186 0.00292597 0.0675012 0.00114854 0.00095647 0.000260142 0.000248029 0.000233513 0.000226762 0.000140005 0.000138211
threshold=0.0072455001063644895 0.27757000923156744 0.91547000408172619 0.74149999022483837 0.59999999403953563 0.37500000000000006 0.75155800580978405 0.82499998807907116 0.022527500055730346 0.97999998927116405 0.87500000000000011 0.80795350670814525 0.57500000298023235 0.78221049904823314 0.90833333134651195 0.74500000476837169 0.858333319425583 0.59499999880790722 0.7639250159263612 0.010903500020504 0.84999999403953563 0.75293251872062694 0.69166666269302379 0.95833334326744091 0.65846002101898204 0.43425925076007849 0.7814529836177827 0.858333319425583 0.74537000060081493 0.7814529836177827
decision_type=2 2 2 2 2 2 2 2 2 2 2 2 2 2 2 2 2 2 2 2 2 2 2 2 2 2 2 2 2 2
left_child=28 4 6 8 -2 7 16 11 19 -9 14 20 -10 -7 25 26 22 -6 -18 -4 21 -5 -3 -13 -24 -8 -11 -21 -1 -30
right_child=1 2 3 5 17 13 10 9 12 15 -12 23 -14 -15 -16 -17 18 -19 -20 27 -22 -23 24 -25 -26 -27 -28 -29 29 -31
leaf_value=-0.073421700325369488 -0.074539982690590131 0.017988006025399426 -0.074814629430922874 -0.07479205844186658 0.01936630877948807 -0.076434669025316648 -0.073643971975576192 0.073993471923662582 -0.075891927878555365 0.0042900420239575304 0.015002707383848164 0.016626960058566558 0.007371470382531011 0.011687439162387746 6.8543922130778566e-05 -0.075874364177695219 -0.076064486248859572 0.075040048728368627 0.0035184395035645884 0.013845139526359069 0.074631108026383508 0.074225705384387261 0.011408846008820061 0.0048705313107880828 0.0060847959281251224 -0.076395895907703848 -0.00013011505703725728 0.0090075811477930041 -0.07607240435223897 -0.073713378972545943
leaf_weight=0.70196246635168824 0.033027302473783382 0.040219336748123058 0.0079021751880645752 0.008039841428399086 0.041315875947475544 0.04832905437797308 0.15058803930878639 0.059254705905914307 0.15384267922490835 0.062022192403674126 0.038224563002586365 0.039192304015159607 0.033460795879364014 0.036456800997257233 0.028819035738706589 0.025130948983132839 0.038667140528559685 1.0023162961006162 0.030404131859540939 0.037319555878639221 0.30997584015130997 0.13869646191596985 0.035655658692121506 0.030972849577665329 0.064356002956628799 0.17945038713514805 0.057655621320009232 0.069038759917020798 0.11509503237903118 0.13481949735432863
leaf_count=43 2 1 1 1 1 3 9 1 13 2 1 1 1 1 1 2 3 5 1 1 3 2 1 1 2 11 2 2 7 8
internal_value=3.52821e-10 0.0250802 -0.00192572 0.0198845 0.0683151 0.0405751 -0.0421121 0.0497525 -0.0360832 0.0134088 -0.0610043 0.0638287 -0.0610174 -0.0385433 -0.0691004 -0.011382 -0.00627023 0.072836 -0.0410333 0.00479053 0.0718776 0.0660609 0.0108524 0.0114373 0.0079829 -0.0751403 0.0021606 0.010705 -0.0737835 -0.0747998
internal_weight=3.75221 2.80033 1.72367 1.11729 1.07666 0.815727 0.606384 0.730941 0.301564 0.204063 0.397082 0.526877 0.187303 0.0847859 0.358857 0.144809 0.209302 1.04363 0.0690713 0.11426 0.456712 0.146736 0.140231 0.0701652 0.100012 0.330038 0.119678 0.106358 0.951877 0.249915
internal_count=133 75 67 37 8 19 30 15 18 7 22 8 14 4 21 6 8 6 4 4 6 3 4 2 3 20 4 3 58 15
is_linear=0
shrinkage=0.05


Tree=6
num_leaves=31
num_cat=0
split_feature=11 3 3 6 8 9 0 16 11 1 15 0 15 0 4 16 10 4 3 11 8 0 4 4 11 3 4 19 0 0
split_gain=2.50964 1.15896 0.536367 0.444704 0.247859 0.205546 0.149164 0.13446 0.108558 0.107978 0.0887224 0.0835025 0.0692458 0.0580361 0.0557661 0.0461751 0.0443871 0.0430638 0.0387259 0.0183604 0.00243006 0.0573475 0.00102511 0.000868912 0.000232035 0.000225218 0.000182223 0.000164279 9.15493e-05 8.90616e-05
threshold=0.0072455001063644895 0.27757000923156744 0.91547000408172619 0.74149999022483837 0.59999999403953563 0.37500000000000006 0.75155800580978405 0.82499998807907116 0.022527500055730346 0.97999998927116405 0.87500000000000011 0.80795350670814525 0.57500000298023235 0.78221049904823314 0.90833333134651195 0.59499999880790722 0.74500000476837169 0.858333319425583 0.7639250159263612 0.010903500020504 0.84999999403953563 0.75293251872062694 0.69166666269302379 0.95833334326744091 0.060980997979640968 0.65846002101898204 0.858333319425583 0.43425925076007849 0.74537000060081493 0.7814529836177827
decision_type=2 2 2 2 2 2 2 2 2 2 2 2 2 2 2 2 2 2 2 2 2 2 2 2 2 2 2 2 2 2
left_child=28 4 6 8 -2 7 17 11 19 -9 14 20 -10 -7 27 -6 24 22 -19 -4 21 -5 -3 -13 -11 -24 -21 -8 -1 -30
right_child=1 2 3 5 15 13 10 9 12 16 -12 23 -14 -15 -16 -17 -18 18 -20 26 -22 -23 25 -25 -26 -27 -28 -29 29 -31
leaf_value=-0.070721770805777948 -0.071613535873177356 0.01686352406715683 -0.071364907476806919 -0.071345826036703225 0.018263678411187097 -0.073198661227981313 -0.070903130555976912 0.071049853051096276 -0.072544763782648125 0.0057695231275105945 0.014045659989682541 0.015520306281818103 0.0070581174286968211 0.011142052904987038 0.00027499400093686178 0.072184616825637801 -0.07259172728094801 -0.072787351693202315 0.0032182352110191551 0.012901191252273837 0.071742635596603696 0.07129938886769692 0.010608633938068955 0.0043427074932821923 0.00081887089796863616 0.0056678789411127462 0.0085745315789562855 -0.0731819949850879 -0.072904698695520867 -0.07097648604940035
leaf_weight=0.68641842948272858 0.031885767355561367 0.040328670293092617 0.007396597880870103 0.0074378107674419871 0.041401416063308494 0.0460367351770401 0.14695189334452152 0.057115629315376282 0.14521082257851958 0.032360922545194626 0.038368295878171921 0.039320383220911026 0.03365069255232811 0.036622840911149979 0.029019109904766083 0.96836548671126366 0.023787110578268766 0.037047301884740591 0.030602982267737389 0.037475176155567169 0.29920627176761627 0.13373883813619614 0.035829123109579086 0.031169233843684196 0.088112954050302505 0.064744915813207626 0.069405466318130493 0.17123414576053619 0.10986203700304031 0.13164383545517921
leaf_count=43 2 1 1 1 1 3 9 1 13 1 1 1 1 1 1 5 2 3 1 1 3 2 1 1 3 2 2 11 7 8
internal_value=-2.66272e-09 0.0241931 -0.0014719 0.0193913 0.0656397 0.0388028 -0.0396795 0.0474644 -0.0332472 0.0128623 -0.0581049 0.0611039 -0.0575684 -0.035831 -0.066078 0.0699738 -0.0101752 -0.00561459 -0.0384047 0.0048193 0.0691913 0.0637842 0.0101286 0.0105778 0.00214868 0.007428 0.0100916 -0.0721295 -0.0710164 -0.0718536
internal_weight=3.65175 2.72383 1.68217 1.08805 1.04165 0.794909 0.594126 0.712249 0.293139 0.201377 0.385573 0.510873 0.178862 0.0826596 0.347205 1.00977 0.144261 0.208553 0.0676503 0.114277 0.440383 0.141177 0.140903 0.0704896 0.120474 0.100574 0.106881 0.318186 0.927924 0.241506
internal_count=133 75 67 37 8 19 30 15 18 7 22 8 14 4 21 6 6 8 4 4 6 3 4 2 4 3 3 20 58 15
is_linear=0
shrinkage=0.05


Tree=7
num_leaves=31
num_cat=0
split_feature=11 3 3 6 8 9 0 16 11 1 15 0 15 0 4 16 10 4 3 11 0 4 4 3 11 4 19 6 0 0
split_gain=2.28156 1.08595 0.456057 0.374853 0.223607 0.177047 0.13705 0.118555 0.0971068 0.0965881 0.0812997 0.0780481 0.0635932 0.0527327 0.0522747 0.0441223 0.0396357 0.0372078 0.035046 0.0159954 0.00232089 0.000911578 0.000780053 0.000196649 0.000191276 0.000152436 0.000107379 7.14419e-05 6.19816e-05 5.81763e-05
threshold=0.0072455001063644895 0.27757000923156744 0.91547000408172619 0.74149999022483837 0.59999999403953563 0.37500000000000006 0.75155800580978405 0.82499998807907116 0.022527500055730346 0.97999998927116405 0.87500000000000011 0.80795350670814525 0.57500000298023235 0.78221049904823314 0.90833333134651195 0.59499999880790722 0.74500000476837169 0.858333319425583 0.7639250159263612 0.010903500020504 0.75293251872062694 0.69166666269302379 0.95833334326744091 0.65846002101898204 0.060980997979640968 0.858333319425583 0.43425925076007849 0.75650000572204601 0.74537000060081493 0.7814529836177827
decision_type=2 2 2 2 2 2 2 2 2 2 2 2 2 2 2 2 2 2 2 2 2 2 2 2 2 2 2 2 2 2
left_child=28 4 6 8 -2 7 17 11 19 -9 14 20 -10 -7 26 -6 24 21 -19 -4 -5 -3 -13 -23 -11 -21 -8 -26 -1 -30
right_child=1 2 3 5 15 13 10 9 12 16 -12 22 -14 -15 -16 -17 -18 18 -20 25 -22 23 -24 -25 27 -27 -28 -29 29 -31
leaf_value=-0.068471002504700854 -0.069188393463121875 0.015805791726457297 -0.068511626468697864 0.060533527204227666 0.01717907842879357 -0.070525151653327192 -0.068630626864649089 0.068620774358582173 -0.069784330977381681 0.0053492071658854268 0.013150561219965454 0.014508901346874339 0.0066864338813868848 0.010534718792523684 0.0003615946010180459 0.069841197110507458 -0.069878333513731863 -0.070044293264716825 0.0029679441542265037 0.012045929643228242 0.06906213901113771 0.0098901803206110778 0.0039458831042669829 0.0052862360597935336 -0.0011817208177133697 0.0080983312440679502 -0.070506683522022329 0.0018505421441509678 -0.070287649254754045 -0.068701449630480069
leaf_weight=0.66797651117667589 0.030774719081819057 0.040451668202876934 0.0070023606531321994 0.10957597382366657 0.041500125080347061 0.044112646952271461 0.14301890786737204 0.054975505918264389 0.13810589211061597 0.032564111053943634 0.038525711745023727 0.039462432265281677 0.033850595355033875 0.036802094429731369 0.029219899326562881 0.95635587349534035 0.022727889474481344 0.035232370253652334 0.030806846916675568 0.037644419819116592 0.29325311630964279 0.036015287041664124 0.031372837722301483 0.065151195973157883 0.028725858777761459 0.069795005023479462 0.16343044396489859 0.059993607923388481 0.10537033248692751 0.12805743794888258
leaf_count=43 2 1 1 2 1 3 9 1 13 1 1 1 1 1 1 5 2 3 1 1 4 1 1 2 1 2 11 2 7 8
internal_value=5.46949e-11 0.02337 -0.00211845 0.017714 0.063557 0.0362201 -0.0375656 0.0446258 -0.030979 0.0122397 -0.0556427 0.0582312 -0.0547306 -0.033657 -0.0635383 0.067651 -0.00928343 -0.00499101 -0.0359846 0.00470931 0.0667422 0.00946187 0.00983056 0.00692524 0.00207173 0.00948148 -0.0696311 0.000868747 -0.0687161 -0.0694175
internal_weight=3.55185 2.65045 1.62182 1.03996 1.02863 0.753566 0.581852 0.672651 0.286398 0.198987 0.374195 0.473664 0.171956 0.0809147 0.335669 0.997856 0.144011 0.207657 0.0660392 0.114442 0.402829 0.141618 0.0708353 0.101166 0.121284 0.107439 0.306449 0.0887195 0.901404 0.233428
internal_count=133 75 67 37 8 19 30 15 18 7 22 8 14 4 21 6 6 8 4 4 6 4 2 3 4 3 20 3 58 15
is_linear=0
shrinkage=0.05


Tree=8
num_leaves=31
num_cat=0
split_feature=11 3 11 6 8 19 21 6 13 0 15 13 16 16 10 3 0 17 0 9 13 16 11 4 0 4 4 0 0 19
split_gain=2.08104 0.997071 0.49099 0.350009 0.203959 0.153773 0.104654 0.0989781 0.0899156 0.0753937 0.0708182 0.0486561 0.0455896 0.0426333 0.0396705 0.0395032 0.0250865 0.0242459 0.021699 0.0087882 0.0319307 0.00462869 0.00158806 0.001035 0.000563103 0.000520126 0.000299177 0.000271176 7.21816e-05 6.17521e-05
threshold=0.0072455001063644895 0.27757000923156744 0.3502935022115708 0.75650000572204601 0.59999999403953563 0.79067459702491771 0.62500000000000011 0.78499999642372142 0.48499999940395361 0.80795350670814525 0.87500000000000011 0.90500000119209301 0.66500002145767223 0.59499999880790722 0.56450000405311596 0.91547000408172619 0.78221049904823314 0.84999999403953563 0.75293251872062694 1.0000000180025095e-35 0.78499999642372142 0.83499997854232799 0.041142001748085029 0.95833334326744091 0.71718597412109386 0.79166665673255932 0.74166664481163036 0.80795350670814525 0.7814529836177827 0.43425925076007849
decision_type=2 2 2 2 2 2 2 2 2 2 2 2 2 2 2 2 2 2 2 2 2 2 2 2 2 2 2 2 2 2
left_child=-1 4 5 -4 -2 10 16 8 -7 21 15 12 -10 -6 -13 29 -5 -14 -17 20 -19 -8 25 -11 -16 -21 -24 -18 -28 -3
right_child=1 2 3 6 13 7 9 -9 11 23 -12 14 17 -15 24 18 27 19 -20 22 -22 -23 26 -25 -26 -27 28 -29 -30 -31
leaf_value=-0.066783058963185968 -0.067186351801095875 -0.06673059179041245 -0.067710098256815593 -0.068196492539790626 0.016118399137929642 -0.067908015896239113 0.067258228844699286 -0.068293752182543022 -0.067112980127049346 0.013546870893103656 0.012283866363741403 0.066442641404733119 -0.066063490964248323 0.067890815813203428 0.01122635332864738 -0.068341997637252433 0.009887646244072644 0.0048905264035519888 0.0049304192288218314 0.014789445088276596 -0.067496456505520816 0.052680487345718945 0.0062623024407777788 0.0012197133466756091 0.0020863804845967283 0.0081318794897807366 0.0027016125382768423 0.003575074464576636 -0.00028554347339466697 -0.06829742965372447
leaf_weight=0.87183056911453638 0.029776831157505623 0.13898933585733175 0.075966764241456985 0.013243331573903561 0.041547011584043503 0.048620442859828472 0.32296372950077057 0.06456452701240778 0.027579226531088352 0.039557266980409622 0.038637839257717133 0.048107918351888657 0.013569364789873806 0.9266488179564476 0.037769757211208344 0.014616615138947964 0.0369388647377491 0.065480664372443709 0.032728806138038635 0.040525320917367935 0.019853549543768167 0.065495130605995655 0.034011133015155792 0.029896732419729233 0.030426813289523125 0.10626359656453133 0.030972974374890327 0.031538702547550201 0.058268744498491287 0.1148453364148736
leaf_count=58 2 9 7 1 1 4 4 5 3 1 1 1 2 5 1 1 1 2 1 1 2 2 1 1 1 3 1 1 2 8
internal_value=1.33619e-09 0.0225725 -0.00212244 0.0327741 0.0617051 -0.0243647 0.0469197 -0.00966565 -0.00292364 0.0562217 -0.0514435 0.00323741 -0.00510353 0.0656692 0.0316748 -0.059619 -0.00520255 -0.000468233 -0.0176905 0.0020364 -0.0119508 0.0648004 0.0064564 0.0082406 0.00714843 0.00996989 0.00227197 0.00698027 0.000751204 -0.0674395
internal_weight=3.45124 2.57941 1.58143 0.615601 0.997973 0.965832 0.539634 0.626014 0.56145 0.457913 0.339818 0.512829 0.396525 0.968196 0.116304 0.30118 0.0817209 0.368945 0.0473454 0.355376 0.0853342 0.388459 0.270042 0.069454 0.0681966 0.146789 0.123253 0.0684776 0.0892417 0.253835
internal_count=133 75 67 18 8 49 11 29 24 8 20 20 17 6 3 19 3 14 2 12 4 6 8 2 2 4 4 2 3 17
is_linear=0
shrinkage=0.05


Tree=9
num_leaves=31
num_cat=0
split_feature=11 3 11 6 8 19 19 13 1 6 15 13 16 16 10 0 3 10 0 6 3 9 13 11 0 4 0 4 0 19
split_gain=1.90849 0.922093 0.420609 0.310156 0.18705 0.147324 0.096093 0.0938035 0.0693749 0.0663371 0.0658319 0.0629654 0.0413959 0.0412406 0.0395096 0.0392385 0.0380428 0.0335092 0.0198456 0.0106843 0.0109465 0.00754024 0.028803 0.00137955 0.000496526 0.000458467 0.000458147 0.000259236 5.83126e-05 4.23164e-05
threshold=0.0072455001063644895 0.27757000923156744 0.3502935022115708 0.75650000572204601 0.59999999403953563 0.79067459702491771 0.85802468657493602 0.90500000119209301 0.97999998927116405 0.78499999642372142 0.87500000000000011 0.48499999940395361 0.59499999880790722 0.66500002145767223 0.56450000405311596 0.80795350670814525 0.91547000408172619 0.74500000476837169 0.75293251872062694 0.48149999976158148 0.35923498868942266 1.0000000180025095e-35 0.78499999642372142 0.041142001748085029 0.71718597412109386 0.79166665673255932 0.80795350670814525 0.74166664481163036 0.7814529836177827 0.43425925076007849
decision_type=2 2 2 2 2 2 2 2 2 2 2 2 2 2 2 2 2 2 2 2 2 2 2 2 2 2 2 2 2 2
left_child=-1 4 5 -4 -2 10 15 9 -8 11 16 -7 -6 -13 -9 -5 29 26 -18 -15 -21 22 -22 25 -16 -23 -10 -25 -29 -3
right_child=1 2 3 6 12 7 8 14 17 -11 -12 13 -14 19 24 -17 18 -19 -20 20 21 23 -24 27 -26 -27 -28 28 -30 -31
leaf_value=-0.065148106911157952 -0.06549309549489428 -0.065114813163833996 -0.065771716138049219 0.065580891343958267 0.015208405019847838 -0.066013220970615433 0.064909585755545937 0.064943231370550664 0.0093596682700929548 -0.06636262878162405 0.011569778254841807 -0.065156272212351735 0.066245150838083619 -0.064057614076741168 0.010564090652498184 0.012748450342590154 -0.066464609753416573 -0.066093863265815511 0.0046649782215749487 -0.064061855902252121 0.0046398253268731624 0.01393272111697956 -0.065508136600914341 0.0059570074453512345 0.0020008628317681157 0.0076889620750197098 0.0023284987321751569 0.0025880720944737347 -8.9164085100273429e-05 -0.066436291056081676
leaf_weight=0.84164337534457478 0.02874870412051711 0.13435882423073031 0.072428589686751366 0.30997718125581741 0.041573122143745422 0.046554890926927328 0.04680744931101799 0.050767082720994949 0.037068743258714676 0.061709330882877111 0.038738489151000977 0.026191981509327888 0.89674784243106842 0.0064409468322992316 0.037886206060647964 0.039638038724660873 0.013970820233225822 0.019936872646212578 0.032897137105464935 0.006368885748088359 0.065817046910524368 0.040581781417131424 0.01881719846278429 0.034171983599662781 0.030600937083363533 0.10670867562294006 0.061782104894518852 0.031146537512540817 0.058615174144506454 0.11032206751406193
leaf_count=58 2 9 7 4 1 4 1 1 1 5 1 3 5 1 1 1 1 2 1 1 2 1 2 1 1 3 2 1 2 8
internal_value=-3.20193e-09 0.0218681 -0.00215746 0.0311101 0.0601349 -0.0226781 0.0447298 -0.00835443 0.013354 -0.0178049 -0.049669 -0.0110165 0.0639839 -0.0045323 0.0315162 0.059591 -0.0578059 -0.00696111 -0.016538 -0.000225283 0.000909752 0.00207256 -0.0109566 0.00613824 0.00673793 0.00940926 0.00496516 0.00225077 0.000839814 -0.0657106
internal_weight=3.34902 2.50737 1.5403 0.587639 0.96707 0.952666 0.51521 0.622379 0.165595 0.503124 0.330287 0.441415 0.938321 0.39486 0.119254 0.349615 0.291549 0.118788 0.046868 0.368668 0.362227 0.355858 0.0846342 0.271224 0.0684871 0.14729 0.0988508 0.123934 0.0897617 0.244681
internal_count=133 75 67 18 8 49 11 29 6 26 20 21 6 17 3 5 19 5 2 14 13 12 4 8 2 4 3 4 3 17
is_linear=0
shrinkage=0.05


Tree=10
num_leaves=31
num_cat=0
split_feature=11 3 11 6 8 19 19 6 13 1 15 13 16 0 16 10 3 10 0 3 4 9 13 11 0 0 4 4 0 0
split_gain=1.7577 0.847193 0.379468 0.279563 0.171797 0.136925 0.0896283 0.0844229 0.0761806 0.0631171 0.0614575 0.0419134 0.0404379 0.038075 0.0375054 0.037128 0.0367705 0.03028 0.0182581 0.00950671 0.00988224 0.00653467 0.0262167 0.00120572 0.000438775 0.000408176 0.000404534 0.000226303 4.83447e-05 3.97762e-05
threshold=0.0072455001063644895 0.27757000923156744 0.3502935022115708 0.75650000572204601 0.59999999403953563 0.79067459702491771 0.85802468657493602 0.78499999642372142 0.48499999940395361 0.97999998927116405 0.87500000000000011 0.90500000119209301 0.59499999880790722 0.80795350670814525 0.66500002145767223 0.56450000405311596 0.91547000408172619 0.74500000476837169 0.75293251872062694 0.35923498868942266 0.4083333313465119 1.0000000180025095e-35 0.78499999642372142 0.041142001748085029 0.71718597412109386 0.80795350670814525 0.79166665673255932 0.74166664481163036 0.7814529836177827 0.74537000060081493
decision_type=2 2 2 2 2 2 2 2 2 2 2 2 2 2 2 2 2 2 2 2 2 2 2 2 2 2 2 2 2 2
left_child=-1 4 5 -4 -2 10 13 8 -7 -8 16 14 -6 -5 -10 -13 -3 25 -18 -16 -21 22 -22 26 -17 -11 -23 -25 -29 -28
right_child=1 2 3 6 12 7 9 -9 11 17 -12 15 -14 -15 19 24 18 -19 -20 20 21 23 -24 27 -26 -27 29 28 -30 -31
leaf_value=-0.063745860178310951 -0.06403169785659224 -0.06422652176294881 -0.064119995362807644 0.064149929312353887 0.014353677393114786 -0.064405142983479449 0.063425890043370445 -0.064704518288575652 -0.063500301927211289 0.0088609154267989387 0.010910783070105002 0.063485947075166985 0.06483650868758134 0.01201330162581913 -0.062347124126094271 0.0099581422045903981 -0.064861151598485711 -0.064335730398769705 0.0044237955639972191 -0.06234284184226855 0.0044078271651082591 0.013136844117071125 -0.063837749660611204 0.0056649708801212104 0.001923267771576925 0.0022360363492851341 0.007947769949625573 0.0024820346232538502 5.0079482374501412e-05 0.0058928891762440117
leaf_weight=0.8110179468058053 0.027642935514450406 0.2351140324026344 0.068967645056545734 0.29696859419345856 0.04158390685915947 0.044550174847245216 0.044699840247631073 0.058805337641388178 0.024854879360646009 0.037175510078668594 0.038818426430225372 0.048536129295825958 0.86101661622524261 0.039699599146842957 0.0060221501626074305 0.037980649620294571 0.013351201079785824 0.018898494075983763 0.033037997782230377 0.0060555418021976939 0.066099043935537338 0.040620721876621246 0.017878795973956585 0.034306842833757401 0.030745748430490494 0.062071602791547775 0.072108548134565353 0.031291380524635315 0.058901200070977211 0.034971263259649277
leaf_count=58 2 17 7 4 1 4 1 5 3 1 1 1 5 1 1 1 1 2 1 1 2 1 2 1 1 2 2 1 2 1
internal_value=-1.449e-10 0.0212511 -0.00196544 0.0302432 0.0587504 -0.0215683 0.0432719 -0.00773797 -0.00170121 0.0128188 -0.0480668 0.00377219 0.0625107 0.058002 -0.00405354 0.0300071 -0.0561996 -0.00632817 -0.015517 -4.12677e-05 0.000994571 0.0020714 -0.0101216 0.00583312 0.00636362 0.00471755 0.00888834 0.00220855 0.000893821 0.00727667
internal_weight=3.24379 2.43277 1.50253 0.568481 0.930243 0.93405 0.499514 0.613728 0.554923 0.162845 0.320322 0.510373 0.902601 0.336668 0.39311 0.117263 0.281503 0.118146 0.0463892 0.368255 0.362233 0.356178 0.0839778 0.2722 0.0687264 0.0992471 0.147701 0.124499 0.0901926 0.10708
internal_count=133 75 67 18 8 49 11 29 24 6 20 20 6 5 17 3 19 5 2 14 13 12 4 8 2 3 4 4 3 3
is_linear=0
shrinkage=0.05


Tree=11
num_leaves=31
num_cat=0
split_feature=11 3 11 6 8 19 19 6 13 1 15 1 0 13 3 10 16 0 15 0 3 4 9 13 11 0 4 4 0 0
split_gain=1.62157 0.782645 0.344043 0.252832 0.160275 0.127918 0.0840292 0.0777052 0.0697046 0.0577206 0.0576113 0.0377265 0.0370958 0.037056 0.0355607 0.0350164 0.0342207 0.0169532 0.00942498 0.0182901 0.00852708 0.00890332 0.00570044 0.0239947 0.00105852 0.000388417 0.000357936 0.000198485 0.00017739 4.07577e-05
threshold=0.0072455001063644895 0.27757000923156744 0.3502935022115708 0.75650000572204601 0.84999999403953563 0.79067459702491771 0.85802468657493602 0.78499999642372142 0.48499999940395361 0.97999998927116405 0.87500000000000011 0.97999998927116405 0.80795350670814525 0.90500000119209301 0.91547000408172619 0.56450000405311596 0.66500002145767223 0.75293251872062694 0.57500000298023235 0.80795350670814525 0.35923498868942266 0.4083333313465119 1.0000000180025095e-35 0.78499999642372142 0.041142001748085029 0.71718597412109386 0.79166665673255932 0.74166664481163036 0.80795350670814525 0.7814529836177827
decision_type=2 2 2 2 2 2 2 2 2 2 2 2 2 2 2 2 2 2 2 2 2 2 2 2 2 2 2 2 2 2
left_child=-1 4 5 -4 11 10 12 8 -7 -8 14 -2 -5 16 -3 -15 -10 -16 19 -11 -18 -22 23 -23 26 -17 -24 -26 -20 -29
right_child=1 2 3 6 -6 7 9 -9 13 18 -12 -13 -14 15 17 25 20 -19 28 -21 21 22 24 -25 27 -27 -28 29 -30 -31
leaf_value=-0.062537591763238212 0.013554605688617216 -0.062955419640983418 -0.062702766742184265 0.062929260695105946 0.063634027253724468 -0.063012486861391118 0.062159594558321679 -0.063288639422129603 -0.062083256600119686 -0.06283323229541618 0.010294879326674954 -0.062775855985532994 0.011329193340667666 0.062242309950746103 -0.063511881324485903 0.0093923432569125581 -0.060874873100810203 0.0041910481450591905 0.0083841532520959605 0.00090771163609921948 -0.060871686072724529 0.0041813293345624508 0.012395216920106623 -0.06240509539163213 0.0053779742517691097 0.0018406341289104238 0.0068832436617253237 0.0023715456649767205 0.0033054465165068998 0.00014197785845823543
leaf_weight=0.77910868823528323 0.041533000767231321 0.22603823244571664 0.065539543516933918 0.28392752259969711 0.82518132776021957 0.04245135048404336 0.04259515181183815 0.056028664112091064 0.023548601660877466 0.017901260871440172 0.038839410990476608 0.026527093723416328 0.039701256901025772 0.046300120651721954 0.012826872058212757 0.038017164915800095 0.0056469594128429881 0.033126220107078552 0.037225168198347092 0.030309488996863365 0.005714364815503358 0.066275585442781448 0.040599066764116287 0.016999982297420502 0.034387443214654922 0.030840352177619934 0.10728244855999947 0.031385209411382675 0.031950671225786209 0.059089753776788712
leaf_count=58 1 17 7 4 5 4 1 5 3 2 1 2 1 1 1 1 1 1 1 1 1 2 1 2 1 1 3 1 1 2
internal_value=-2.32087e-09 0.0206649 -0.00183247 0.029456 0.0575514 -0.0206025 0.0419454 -0.00720049 -0.00147155 0.0123022 -0.0466695 -0.0161959 0.0565992 0.0036906 -0.0548038 0.0286187 -0.00365258 -0.0147068 -0.00578915 -0.0227601 9.27504e-05 0.0010445 0.0020383 -0.00941171 0.00553428 0.00601003 0.00839649 0.00214441 0.00603842 0.000915401
internal_weight=3.1369 2.35779 1.46455 0.54915 0.893241 0.915398 0.483611 0.604567 0.548538 0.159982 0.310831 0.0680601 0.323629 0.506087 0.271991 0.115158 0.390929 0.0459531 0.117387 0.0482107 0.367381 0.361734 0.356019 0.0832756 0.272744 0.0688575 0.147882 0.124862 0.0691758 0.090475
internal_count=133 75 67 18 8 49 11 29 24 6 20 3 5 20 19 3 17 2 5 3 14 13 12 4 8 2 4 4 2 3
is_linear=0
shrinkage=0.05


Tree=12
num_leaves=31
num_cat=0
split_feature=11 3 11 6 8 19 19 6 13 15 1 0 1 3 13 10 16 0 15 0 3 4 9 13 11 0 4 4 0 0
split_gain=1.4988 0.748082 0.296612 0.225759 0.150609 0.1194 0.076621 0.0718238 0.0644526 0.054134 0.0529784 0.0358924 0.0349647 0.0345484 0.0328383 0.0330974 0.0312807 0.0157114 0.00827805 0.0169765 0.00771966 0.00799735 0.00498487 0.0220341 0.000930536 0.000343679 0.000317022 0.000174296 0.000160729 3.46685e-05
threshold=0.0072455001063644895 0.27757000923156744 0.3502935022115708 0.75650000572204601 0.84999999403953563 0.79067459702491771 0.85802468657493602 0.78499999642372142 0.48499999940395361 0.87500000000000011 0.97999998927116405 0.80795350670814525 0.97999998927116405 0.91547000408172619 0.90500000119209301 0.56450000405311596 0.66500002145767223 0.75293251872062694 0.57500000298023235 0.80795350670814525 0.35923498868942266 0.4083333313465119 1.0000000180025095e-35 0.78499999642372142 0.041142001748085029 0.71718597412109386 0.79166665673255932 0.74166664481163036 0.80795350670814525 0.7814529836177827
decision_type=2 2 2 2 2 2 2 2 2 2 2 2 2 2 2 2 2 2 2 2 2 2 2 2 2 2 2 2 2 2
left_child=-1 4 5 -4 12 9 11 8 -7 13 -8 -5 -2 -3 16 -16 -10 -15 19 -12 -18 -22 23 -23 26 -17 -24 -26 -20 -29
right_child=1 2 3 6 -6 7 10 -9 14 -11 18 -13 -14 17 15 25 20 -19 28 -21 21 22 24 -25 27 -27 -28 29 -30 -31
leaf_value=-0.06149001794294711 0.012814848852672263 -0.061856544897428367 -0.061482356263760252 0.061806859618064869 0.062613237896257029 -0.061843244439701274 0.061072929462606666 -0.062077090398946988 -0.060865366847305064 0.0097277034297117582 -0.061541722390735035 0.010700170938034059 -0.061690137948718006 -0.062326289261479664 0.061175237089928294 0.0088727048388740799 -0.059604278216306164 0.0039798068823505483 0.0079403259731864514 0.00094200598212630703 -0.059601243182802272 0.0039751049919159401 0.011711133495519627 -0.061171901281548646 0.0051115601282155842 0.0017709052175436527 0.0065199331572823238 0.0022737534382065647 0.0031072664776409776 0.00021890080106614989
leaf_weight=0.74669706495478783 0.041417013853788709 0.21680963691323973 0.062220142688602209 0.2576785571873188 0.80262844264507294 0.040661865845322609 0.040503546595573425 0.053403456229716539 0.022241306491196156 0.038797974586486816 0.016935952007770538 0.039639689028263092 0.025407012552022934 0.012228750623762608 0.044072166085243225 0.037992250174283981 0.0053165424615144721 0.03315967321395874 0.037214368581771851 0.030353749170899391 0.0053478372283279887 0.066342327743768692 0.040513012558221817 0.016136002261191607 0.034411415457725525 0.030883558094501495 0.10731091722846031 0.031426861882209778 0.031989801675081253 0.059179557487368584
leaf_count=58 1 17 7 4 5 4 1 5 3 1 2 1 2 1 1 1 1 1 1 1 1 2 1 2 1 1 3 1 1 2
internal_value=-1.35866e-09 0.0201183 -0.00233877 0.0278391 0.0566087 -0.0197315 0.040072 -0.00675387 -0.0013012 -0.0453956 0.0118148 0.0549931 -0.0155125 -0.0535523 0.00361078 0.0273392 -0.00329263 -0.0138847 -0.00531169 -0.0214354 0.000206135 0.00108779 0.00200121 -0.00877021 0.00525734 0.00568829 0.00794265 0.00208216 0.00570623 0.000931627
internal_weight=3.02892 2.28222 1.41277 0.516536 0.869452 0.896235 0.454316 0.595239 0.541836 0.300996 0.156997 0.297318 0.066824 0.262198 0.501174 0.112948 0.388226 0.0453884 0.116494 0.0472897 0.365984 0.360668 0.35532 0.0824783 0.272842 0.0688758 0.147824 0.125018 0.0692042 0.0906064
internal_count=133 75 67 18 8 49 11 29 24 20 6 5 3 19 20 3 17 2 5 3 14 13 12 4 8 2 4 4 2 3
is_linear=0
shrinkage=0.05


Tree=13
num_leaves=31
num_cat=0
split_feature=11 3 11 6 8 19 19 6 13 15 1 0 3 1 13 10 16 0 15 0 3 4 9 13 11 0 4 4 0 0
split_gain=1.38951 0.694689 0.269892 0.205281 0.141713 0.111507 0.0720556 0.0666136 0.0593139 0.0509331 0.0487038 0.0351115 0.033589 0.0324674 0.0291747 0.0313384 0.0286808 0.0145941 0.00723833 0.0157202 0.00700137 0.00724136 0.00435405 0.0202495 0.000820186 0.000304491 0.000281274 0.000153456 0.00014508 3.32674e-05
threshold=0.0072455001063644895 0.27757000923156744 0.3502935022115708 0.75650000572204601 0.84999999403953563 0.79067459702491771 0.85802468657493602 0.78499999642372142 0.48499999940395361 0.87500000000000011 0.97999998927116405 0.80795350670814525 0.91547000408172619 0.97999998927116405 0.90500000119209301 0.56450000405311596 0.66500002145767223 0.75293251872062694 0.57500000298023235 0.80795350670814525 0.35923498868942266 0.4083333313465119 1.0000000180025095e-35 0.78499999642372142 0.041142001748085029 0.71718597412109386 0.79166665673255932 0.74166664481163036 0.80795350670814525 0.74537000060081493
decision_type=2 2 2 2 2 2 2 2 2 2 2 2 2 2 2 2 2 2 2 2 2 2 2 2 2 2 2 2 2 2
left_child=-1 4 5 -4 13 9 11 8 -7 12 -8 -5 -3 -2 16 -16 -10 -14 19 -12 -18 -22 23 -23 26 -17 -24 -26 -20 -28
right_child=1 2 3 6 -6 7 10 -9 14 -11 18 -13 17 -15 15 25 20 -19 28 -21 21 22 24 -25 27 -27 29 -29 -30 -31
leaf_value=-0.06058014335923248 0.012125077975576538 -0.060898677743141921 -0.06042835326646992 0.060903477277618301 0.061720852391308804 -0.060804686459780266 0.060136231787977779 -0.061030357311495975 -0.059811256102622813 0.0091982904055003534 -0.060399795842404735 0.010114346571354068 -0.061298346784155161 -0.060746133280287988 0.060255353995756981 0.0083884013215233706 -0.058501729937303251 0.0037788936339833087 0.007522017941380587 0.00095411694280695498 -0.058499146734175923 0.0037768324586547838 0.011074327653707231 -0.060108248677316435 0.0048553276009563728 0.0016990915292285783 0.0067904684927081226 0.00093132058778927637 0.0029271739037335402 0.0049120475144715766
leaf_weight=0.71484782267361913 0.041229903697967862 0.20731559116393306 0.058920319657772779 0.24536261335015297 0.76653970032930374 0.038631428964436054 0.038436189293861389 0.050832090433686972 0.020992097444832325 0.038687381893396378 0.015917884651571512 0.039508238434791565 0.011642547324299812 0.024290807545185089 0.041865713894367218 0.037898901849985123 0.004993792623281478 0.033130478113889694 0.037135835736989975 0.030339617282152176 0.0050232638604938975 0.066284142434597015 0.040356472134590149 0.015259293839335442 0.034371104091405869 0.030867442488670349 0.072129581123590469 0.090563533827662468 0.031968120485544205 0.035012159496545792
leaf_count=58 1 17 7 4 5 4 1 5 3 1 2 1 1 2 1 1 1 1 1 1 1 2 1 2 1 1 2 3 1 1
internal_value=8.75999e-10 0.0196352 -0.00220631 0.0272 0.0556881 -0.0189125 0.0389699 -0.00633552 -0.00113148 -0.0442191 0.0113905 0.0538596 -0.052417 -0.0148908 0.00351982 0.0261497 -0.00298325 -0.0131435 -0.00485064 -0.0201587 0.000294113 0.00111198 0.00195792 -0.00817804 0.00499177 0.00538574 0.00751667 0.00201086 0.0053964 0.00617663
internal_weight=2.92035 2.20551 1.37345 0.497589 0.83206 0.875857 0.438668 0.585081 0.534249 0.290776 0.153798 0.284871 0.252089 0.0655207 0.495617 0.110632 0.384985 0.044773 0.115361 0.0462575 0.363993 0.359 0.353976 0.0815434 0.272433 0.0687663 0.147498 0.124935 0.069104 0.107142
internal_count=133 75 67 18 8 49 11 29 24 20 6 5 19 3 20 3 17 2 5 3 14 13 12 4 8 2 4 4 2 3
is_linear=0
shrinkage=0.05


Tree=14
num_leaves=31
num_cat=0
split_feature=11 3 11 6 8 19 19 6 13 15 1 0 3 1 13 10 16 0 6 0 3 4 9 21 11 0 0 4 4 0
split_gain=1.29019 0.660278 0.236562 0.183835 0.133801 0.104419 0.0663476 0.0617501 0.0547653 0.0480117 0.0449457 0.0341117 0.0326924 0.0301955 0.0259495 0.0297017 0.0262809 0.0135818 0.00644529 0.0144392 0.0063592 0.00656684 0.00380888 0.0186447 0.00072365 0.000269771 0.000255199 0.000249606 0.00013519 3.25151e-05
threshold=0.0072455001063644895 0.27757000923156744 0.3502935022115708 0.75650000572204601 0.84999999403953563 0.79067459702491771 0.85802468657493602 0.78499999642372142 0.48499999940395361 0.87500000000000011 0.97999998927116405 0.80795350670814525 0.91547000408172619 0.97999998927116405 0.90500000119209301 0.56450000405311596 0.66500002145767223 0.75293251872062694 0.79925000667572033 0.78221049904823314 0.35923498868942266 0.4083333313465119 1.0000000180025095e-35 0.85249999165534984 0.041142001748085029 0.71718597412109386 0.80795350670814525 0.79166665673255932 0.74166664481163036 0.7814529836177827
decision_type=2 2 2 2 2 2 2 2 2 2 2 2 2 2 2 2 2 2 2 2 2 2 2 2 2 2 2 2 2 2
left_child=-1 4 5 -4 13 9 11 8 -7 12 -8 -5 -3 -2 16 -16 -10 -14 -12 -20 -18 -22 23 -23 27 -17 -21 -24 -26 -30
right_child=1 2 3 6 -6 7 10 -9 14 -11 18 -13 17 -15 15 25 20 -19 19 26 21 22 24 -25 28 -27 -28 -29 29 -31
leaf_value=-0.059784530039616715 0.011482918643311047 -0.06006519517853233 -0.059490056665443915 0.060062245908942491 0.060953974708980743 -0.059909403278664924 0.05932543995159878 -0.060111121720622454 -0.058877488083675295 0.0087067377650915084 -0.058392780527340461 0.009571916670560213 -0.060402434712715718 -0.059921117477427788 0.059459169785224746 0.0079396826431824864 -0.0575409096752936 0.0035924945918166633 -0.059995861646466801 0.0071314540126887266 -0.057538635495774537 0.0035930048606177124 0.010482917954976157 -0.059184591612578163 0.0046150268170124182 0.0016328892999960876 0.0018860825267934891 0.0058574393579284819 0.0022284516912212588 0.0002354826391679062
leaf_weight=0.68317208765074644 0.040970794856548642 0.19812767487019278 0.055467043071985245 0.22464228793978691 0.73947965353727341 0.036680428776890039 0.036403477191925049 0.048201985657215118 0.019741418771445751 0.038506347686052322 0.0052866865880787364 0.039305496960878372 0.011068707332015038 0.023184208199381828 0.039693064987659454 0.037735611200332642 0.0046795289963483802 0.033037755638360977 0.0097265159711241722 0.036988325417041779 0.004707174375653266 0.066098254173994064 0.040128327906131744 0.014404867310076952 0.034265514463186264 0.030791323632001877 0.062150925397872925 0.10676886141300201 0.031330745667219162 0.059014495462179184
leaf_count=58 1 17 7 4 5 4 1 5 3 1 1 1 1 2 1 1 1 1 1 1 1 2 1 2 1 1 2 3 1 2
internal_value=-1.42038e-09 0.0191879 -0.00249997 0.0259961 0.0549447 -0.0181638 0.0374355 -0.0059462 -0.000982969 -0.0431545 0.0109488 0.0525435 -0.0513985 -0.0143209 0.00343392 0.0250416 -0.00270133 -0.0124673 -0.00447868 -0.00186053 0.000367304 0.00112696 0.00191145 -0.00764014 0.00474353 0.00510584 0.0038431 0.00712099 0.00194086 0.000926623
internal_weight=2.81176 2.12859 1.32495 0.469971 0.803635 0.854982 0.414504 0.574242 0.52604 0.28074 0.150556 0.263948 0.242234 0.064155 0.489359 0.10822 0.381139 0.0441065 0.114152 0.108866 0.361398 0.356718 0.352011 0.0805031 0.271508 0.0685269 0.0991393 0.146897 0.124611 0.0903452
internal_count=133 75 67 18 8 49 11 29 24 20 6 5 19 3 20 3 17 2 5 4 14 13 12 4 8 2 3 4 4 3
is_linear=0
shrinkage=0.05


Tree=15
num_leaves=31
num_cat=0
split_feature=11 3 11 6 8 2 4 19 13 10 10 11 1 13 9 17 0 16 1 0 4 0 16 0 0 1 0 0 6 0
split_gain=1.19926 0.632944 0.203429 0.164686 0.126593 0.0988836 0.0733243 0.0611689 0.0447322 0.0354377 0.0364042 0.0343956 0.0281213 0.0270046 0.0243911 0.0241841 0.0197065 0.0138982 0.0208206 0.0133063 0.00372066 0.0184492 0.000600758 0.000226135 0.000223103 7.36317e-05 6.13467e-05 2.33798e-05 2.15767e-05 2.05409e-05
threshold=0.0072455001063644895 0.27757000923156744 0.3502935022115708 0.75650000572204601 0.84999999403953563 0.75000000000000011 0.4083333313465119 0.84392359852790844 0.90500000119209301 0.76000002026557933 0.79600000381469738 0.060980997979640968 0.97999998927116405 0.48499999940395361 0.62500000000000011 0.84999999403953563 0.7104800045490266 0.9350000023841859 0.91999998688697826 0.78221049904823314 0.90833333134651195 0.7153185009956361 0.7150000035762788 0.80795350670814525 0.7814529836177827 0.97999998927116405 0.73111149668693554 0.7104800045490266 0.85249999165534984 0.6878420114517213
decision_type=2 2 2 2 2 2 2 2 2 2 2 2 2 2 2 2 2 2 2 2 2 2 2 2 2 2 2 2 2 2
left_child=-1 4 5 -4 12 -3 11 -5 13 19 -11 27 -2 -8 15 -15 -10 20 -19 -9 22 -22 26 -21 29 -23 -17 -7 -25 -24
right_child=1 2 3 7 -6 6 8 9 16 10 -12 -13 -14 14 -16 17 -18 18 -20 23 21 25 24 28 -26 -27 -28 -29 -30 -31
leaf_value=-0.059084109865203155 0.010890997183233539 -0.059337361644411349 -0.05869106841277974 0.059388371402642061 0.060287642568429126 -0.056670272606278799 -0.059000257175171877 -0.059195141036320433 0.0075312345818687775 0.058790069174704786 0.0016099187221005522 0.0015849821612249878 -0.059196461830603155 -0.058240043193884906 -0.059497176035680034 0.0099399299294748254 0.058767370098378915 0.0022988692908387626 -0.058957207710522201 0.006775089006979357 -0.058613280228298127 0.0044247713989900893 0.0055260413300356956 0.00086609917534075521 -0.00033168372938419989 0.0015388498949552591 0.0075081628091276352 -0.059371436775963307 0.0027340563475084017 0.0041252694785474759
leaf_weight=0.65179520379751954 0.040640380233526563 0.1205513374879954 0.052364889997988939 0.16068765893578529 0.7150084599852562 0.0088054416701197624 0.024856979958713055 0.009202662855386734 0.037503566592931747 0.07587076723575592 0.043965966906398535 0.030657704919576645 0.022091556340456009 0.019157772883773516 0.020095253363251686 0.039828993380069067 0.037564739584922791 0.032294236123561859 0.024317339994013309 0.036772847175598145 0.014136055484414101 0.03471829742193222 0.035389415919780731 0.030136048793792725 0.029133718460798264 0.060823166742920876 0.074346676468849182 0.088773761875927448 0.031743157655000687 0.10047334060072899
leaf_count=58 1 11 7 3 5 2 3 1 1 2 2 1 2 3 2 1 1 1 3 1 2 1 1 1 1 2 2 8 1 3
internal_value=-1.46934e-10 0.0187682 -0.00292763 0.0245452 0.0543125 -0.0174561 -0.0103738 0.0357678 -0.00286364 0.0190982 0.0378117 -0.0446131 -0.0137909 -0.00817202 -0.00556547 -0.00323286 0.0331702 -0.000867192 -0.0240135 -0.00169418 0.00250262 -0.00530047 0.00556819 0.00366974 0.00363874 0.00258755 0.00835646 -0.0591277 0.00182433 0.00449014
internal_weight=2.70371 2.05191 1.27417 0.440744 0.77774 0.833428 0.712876 0.388379 0.58464 0.227691 0.119837 0.128237 0.0627319 0.509571 0.484714 0.464619 0.0750683 0.445461 0.0566116 0.107855 0.38885 0.109678 0.279172 0.0986521 0.164996 0.0955415 0.114176 0.0975792 0.0618792 0.135863
internal_count=133 75 67 18 8 49 38 11 27 8 4 11 3 25 22 20 2 17 4 4 13 5 8 3 5 3 3 10 2 4
is_linear=0
shrinkage=0.05


Tree=16
num_leaves=31
num_cat=0
split_feature=11 3 11 6 8 2 4 19 13 11 10 10 8 13 9 17 0 16 1 0 4 0 16 0 0 1 4 0 6 20
split_gain=1.1162 0.590338 0.185639 0.150185 0.119779 0.0937146 0.0680776 0.0588682 0.0401384 0.0330042 0.032783 0.0343466 0.0262106 0.025202 0.0227675 0.0222816 0.0189121 0.0124619 0.0196139 0.0122748 0.00322794 0.0169079 0.000529346 0.000200857 0.000191762 6.83887e-05 5.8714e-05 2.31775e-05 1.9541e-05 1.80831e-05
threshold=0.0072455001063644895 0.27757000923156744 0.3502935022115708 0.75650000572204601 0.84999999403953563 0.75000000000000011 0.4083333313465119 0.84392359852790844 0.90500000119209301 0.060980997979640968 0.76000002026557933 0.79600000381469738 0.59999999403953563 0.48499999940395361 0.62500000000000011 0.84999999403953563 0.7104800045490266 0.9350000023841859 0.91999998688697826 0.78221049904823314 0.90833333134651195 0.7153185009956361 0.7150000035762788 0.80795350670814525 0.7814529836177827 0.97999998927116405 0.79166665673255932 0.7104800045490266 0.76600000262260448 0.80000001192092907
decision_type=2 2 2 2 2 2 2 2 2 2 2 2 2 2 2 2 2 2 2 2 2 2 2 2 2 2 2 2 2 2
left_child=-1 4 5 29 12 -3 9 -5 13 27 19 -12 -2 -8 15 -15 -10 20 -19 -9 22 -22 26 -21 28 -23 -17 -7 -24 -4
right_child=1 2 3 7 -6 6 8 10 16 -11 11 -13 -14 14 -16 17 -18 18 -20 23 21 25 24 -25 -26 -27 -28 -29 -30 -31
leaf_value=-0.058467945190977588 -0.058560120312746169 -0.058688473592480209 -0.055868170202764827 0.058791763463098473 0.05968879553412685 -0.055935667281781579 -0.058303530629315883 -0.058496323732589277 0.0071399856274327799 0.0015198696626214959 0.058185676508075469 0.0019238097254383529 0.010330545631172 -0.057536092675824504 -0.058805285750929637 0.0086822641865360369 0.058163663818259631 0.0022518760781865912 -0.058264352058840597 0.0064304336305219161 -0.057838907583827454 0.0042548981207953356 0.004593593913698334 0.0017467212255947804 -0.00023216442648903041 0.0014635888591909237 0.006233397449223725 -0.058725719212995964 0.0031885445992327504 -0.058421560495248243
leaf_weight=0.6210653982125226 0.021022282540798076 0.11467673350125529 0.0083469110541045666 0.15222906693816185 0.67986194789409637 0.0081624737940728664 0.023456730879843235 0.0086954273283481598 0.037189226597547531 0.030450230464339256 0.071691598743200302 0.043638496659696102 0.040226876735687256 0.017988720443099848 0.01903095655143261 0.077372610569000133 0.035493772476911545 0.032070215791463852 0.022986172698438168 0.036475464701652527 0.013240203261375427 0.034461032599210739 0.1022217720746994 0.061457458883523941 0.028938554227352142 0.060411937534809113 0.035802729427814484 0.084514928050339222 0.032649807631969452 0.040960431564599276
leaf_count=58 2 11 2 3 5 2 3 1 1 1 2 2 1 3 2 2 1 1 3 1 2 1 3 2 1 2 1 8 1 5
internal_value=8.71392e-10 0.0183793 -0.00279619 0.0240361 0.0536554 -0.0168056 -0.00990917 0.0348447 -0.00266462 -0.0436416 0.0184207 0.0368974 -0.0133145 -0.00770556 -0.00521829 -0.00299233 0.0320567 -0.000763173 -0.0230138 -0.00156383 0.00241793 -0.00490923 0.00527787 0.00349119 0.00346103 0.00247749 0.00790757 -0.05848 0.00425346 -0.0579893
internal_weight=2.59679 1.97572 1.23461 0.423495 0.741111 0.811119 0.696442 0.374188 0.573314 0.123128 0.221958 0.11533 0.0612492 0.500631 0.477175 0.458144 0.072683 0.440155 0.0550564 0.106628 0.385099 0.108113 0.276985 0.0979329 0.16381 0.094873 0.113175 0.0926774 0.134872 0.0493073
internal_count=133 75 67 18 8 49 38 11 27 11 8 4 3 25 22 20 2 17 4 4 13 5 8 3 5 3 3 10 4 7
is_linear=0
shrinkage=0.05


Tree=17
num_leaves=31
num_cat=0
split_feature=11 3 11 6 8 2 4 19 13 11 10 10 8 13 9 17 0 0 16 1 4 0 16 0 0 1 0 0 0 6
split_gain=1.03979 0.550835 0.169161 0.137325 0.113678 0.0888875 0.0633269 0.0566995 0.0359931 0.0317106 0.0302352 0.0325639 0.0245094 0.0235922 0.0212926 0.0205 0.0181319 0.0113429 0.0110446 0.0183931 0.00281734 0.0155827 0.000465075 0.000177467 0.000164748 6.25703e-05 5.58013e-05 2.27629e-05 1.95454e-05 1.88251e-05
threshold=0.0072455001063644895 0.27757000923156744 0.3502935022115708 0.75650000572204601 0.84999999403953563 0.75000000000000011 0.4083333313465119 0.84392359852790844 0.90500000119209301 0.060980997979640968 0.76000002026557933 0.79600000381469738 0.59999999403953563 0.48499999940395361 0.62500000000000011 0.84999999403953563 0.7104800045490266 0.78221049904823314 0.9350000023841859 0.91999998688697826 0.90833333134651195 0.7153185009956361 0.7150000035762788 0.80795350670814525 0.7814529836177827 0.97999998927116405 0.73111149668693554 0.7104800045490266 0.6878420114517213 0.85249999165534984
decision_type=2 2 2 2 2 2 2 2 2 2 2 2 2 2 2 2 2 2 2 2 2 2 2 2 2 2 2 2 2 2
left_child=-1 4 5 -4 12 -3 9 -5 13 27 17 -12 -2 -8 15 -15 -10 -9 20 -20 22 -22 26 -19 28 -23 -17 -7 -24 -25
right_child=1 2 3 7 -6 6 8 10 16 -11 11 -13 -14 14 -16 18 -18 23 19 -21 21 25 24 29 -26 -27 -28 -29 -30 -31
leaf_value=-0.057921831644527216 -0.058007354260996062 -0.058113108420149939 -0.057385623405627251 0.058268131270577075 0.059159792503955269 -0.055289211331231575 -0.057699154173347235 -0.057881293975803563 0.0067898330961274726 0.0014852219899951626 0.057656649640138682 0.002110573590674617 0.0098177481917691989 -0.056905244191989314 -0.058194781365306897 0.0090327123674123887 0.057635202663392816 0.0061233923362347753 0.0022197599711372296 -0.057628893742948196 -0.057189265453588801 0.0041046827018924566 0.005074576591972811 0.00079808824695106438 -0.00012030708810607113 0.001422676087129226 0.0066899765797596633 -0.058153104043602348 0.0036965907997598755 0.0025564111310232111
leaf_weight=0.59101310744881663 0.02003298234194506 0.10890860948711611 0.04644867405295372 0.14400381594896317 0.64558518677949905 0.0075940189417451611 0.022124655544757843 0.0082038529217243195 0.036809656769037247 0.030189825221896172 0.067635577172040939 0.043263510800898075 0.039746128022670746 0.01681384607218217 0.017997359856963158 0.03900231048464764 0.033483762294054031 0.036113966256380081 0.031789783388376236 0.021533495048061013 0.012421669904142618 0.034142553806304932 0.034789759665727615 0.029678281396627426 0.028694078326225281 0.059896325692534447 0.072976447641849518 0.080357742495834827 0.09885188564658165 0.031251676380634308
leaf_count=58 2 11 7 3 5 2 3 1 1 1 2 2 1 3 2 1 1 1 1 3 2 1 1 1 1 2 2 8 3 1
internal_value=4.17191e-10 0.0180139 -0.00266807 0.0235273 0.0530518 -0.0161781 -0.00945654 0.0339626 -0.00245373 -0.0427291 0.0177695 0.0359872 -0.0129116 -0.00724415 -0.00486352 -0.00273489 0.0310097 -0.00142646 -0.000636724 -0.0219489 0.0023478 -0.00455595 0.00502713 0.00334609 0.00331724 0.00239643 0.00750595 -0.0579058 0.00405531 0.00169995
internal_weight=2.49135 1.90034 1.19498 0.406599 0.705364 0.788378 0.679469 0.360151 0.561328 0.118142 0.216147 0.110899 0.0597791 0.491034 0.46891 0.450912 0.0702934 0.105248 0.434098 0.0533233 0.380775 0.106461 0.274314 0.0970439 0.162336 0.0940389 0.111979 0.0879518 0.133642 0.06093
internal_count=133 75 67 18 8 49 38 11 27 11 8 4 3 25 22 20 2 4 17 4 13 5 8 3 5 3 3 10 4 2
is_linear=0
shrinkage=0.05


Tree=18
num_leaves=31
num_cat=0
split_feature=11 3 11 6 8 2 4 19 13 11 10 10 8 13 9 17 0 0 16 1 4 0 16 0 0 1 4 0 0 20
split_gain=0.969114 0.514614 0.154765 0.124895 0.107742 0.0843023 0.05887 0.0546237 0.0323374 0.0304553 0.0278737 0.030934 0.0228772 0.0220651 0.0198997 0.0188951 0.0173746 0.0104886 0.00989834 0.0173187 0.00246206 0.0143672 0.00040925 0.000156947 0.000142141 5.70295e-05 5.33228e-05 2.20995e-05 1.74321e-05 1.61093e-05
threshold=0.0072455001063644895 0.27757000923156744 0.3502935022115708 0.75650000572204601 0.84999999403953563 0.75000000000000011 0.4083333313465119 0.84392359852790844 0.90500000119209301 0.060980997979640968 0.76000002026557933 0.79600000381469738 0.59999999403953563 0.48499999940395361 0.62500000000000011 0.84999999403953563 0.7104800045490266 0.78221049904823314 0.9350000023841859 0.91999998688697826 0.90833333134651195 0.7153185009956361 0.7150000035762788 0.80795350670814525 0.7814529836177827 0.97999998927116405 0.79166665673255932 0.7104800045490266 0.6878420114517213 0.80000001192092907
decision_type=2 2 2 2 2 2 2 2 2 2 2 2 2 2 2 2 2 2 2 2 2 2 2 2 2 2 2 2 2 2
left_child=-1 4 5 29 12 -3 9 -5 13 27 17 -12 -2 -8 15 -15 -10 -9 20 -20 22 -22 26 -19 28 -23 -17 -7 -24 -4
right_child=1 2 3 7 -6 6 8 10 16 -11 11 -13 -14 14 -16 18 -18 23 19 -21 21 25 24 -25 -26 -27 -28 -29 -30 -31
leaf_value=-0.057433747733367846 -0.05750395412911137 -0.05760341174865552 -0.05465548144707514 0.057806650574490893 0.058689903385570889 -0.054718725523227776 -0.057165377742895186 -0.057337864180945865 0.0064591686795571861 0.0014447092443230657 0.057192135773652002 0.0022321454119535477 0.009335369289682283 -0.05635850192343126 -0.057653755935158035 0.0078769901349815281 0.057171234584390489 0.0058321379503303676 0.0021748091327447113 -0.057093263885158931 -0.056618163133775296 0.003952776857507524 0.0048340750415030191 0.0016481781407248035 -3.3658236145879403e-05 0.0013779625166157336 0.0055169621854921193 -0.05764459544831621 0.0035252265643112993 -0.057255934968177984
leaf_weight=0.56168610765598748 0.019011526368558296 0.10338289290666558 0.0071240684483200303 0.1360461562871933 0.61235127225518227 0.0070498129352927199 0.020840327721089125 0.0077302441932260981 0.036360412836074829 0.029867148026823997 0.06371702067553997 0.04280052799731493 0.039195980876684189 0.01572376978583645 0.016999509185552597 0.075538475066423305 0.031541984528303146 0.035682767629623413 0.031444482505321503 0.020272031193599105 0.011636523995548487 0.033756155520677567 0.034388992935419083 0.060275653377175331 0.02838980033993721 0.059256657958030701 0.035034932196140289 0.076330309733748436 0.097755357623100281 0.036306700902059674
leaf_count=58 2 11 2 3 5 2 3 1 1 1 2 2 1 3 2 2 1 1 1 3 2 1 1 2 1 2 1 8 3 5
internal_value=1.45466e-09 0.0176687 -0.00255508 0.0230959 0.0525107 -0.0156117 -0.00905584 0.033121 -0.00228444 -0.0418786 0.0171444 0.0351083 -0.0124954 -0.0068439 -0.00456506 -0.00252876 0.0300159 -0.00130953 -0.000548736 -0.0210573 0.00227392 -0.0042404 0.00478849 0.00320401 0.00317623 0.00231241 0.00712922 -0.0573972 0.00386584 -0.0568294
internal_weight=2.3875 1.82581 1.15525 0.389683 0.670559 0.76557 0.662187 0.346252 0.548939 0.113247 0.210206 0.106518 0.0582075 0.481037 0.460197 0.443197 0.0679024 0.103689 0.427473 0.0517165 0.375757 0.104649 0.271108 0.0959584 0.160534 0.0930128 0.110573 0.0833801 0.132144 0.0434308
internal_count=133 75 67 18 8 49 38 11 27 11 8 4 3 25 22 20 2 4 17 4 13 5 8 3 5 3 3 10 4 7
is_linear=0
shrinkage=0.05


Tree=19
num_leaves=31
num_cat=0
split_feature=11 3 11 6 8 2 4 19 11 13 6 1 8 13 9 17 0 0 16 1 6 4 0 6 10 0 1 11 0 6
split_gain=0.90337 0.481385 0.137878 0.113384 0.101964 0.0805387 0.0552892 0.0538899 0.0292132 0.0286569 0.0263066 0.0301833 0.0213068 0.0208939 0.0187879 0.017592 0.0166381 0.00966569 0.0090399 0.0162303 0.00677875 0.00237032 0.0132475 0.000653885 0.000285986 0.000151804 5.1809e-05 3.92014e-05 2.11647e-05 1.62064e-05
threshold=0.0072455001063644895 0.27757000923156744 0.3502935022115708 0.75650000572204601 0.84999999403953563 0.75000000000000011 0.4083333313465119 0.84392359852790844 0.060980997979640968 0.90500000119209301 0.86349999904632579 0.97999998927116405 0.59999999403953563 0.48499999940395361 0.62500000000000011 0.84999999403953563 0.7104800045490266 0.78221049904823314 0.9350000023841859 0.91999998688697826 0.79925000667572033 0.90833333134651195 0.7153185009956361 0.7775000035762788 0.50850000977516185 0.7814529836177827 0.97999998927116405 0.034738499671220786 0.7104800045490266 0.85249999165534984
decision_type=2 2 2 2 2 2 2 2 2 2 2 2 2 2 2 2 2 2 2 2 2 2 2 2 2 2 2 2 2 2
left_child=-1 4 5 -4 12 -3 8 -5 28 13 11 -9 -2 -8 15 -15 -11 -13 21 -20 -19 23 -23 25 29 27 -24 -17 -7 -22
right_child=1 2 3 7 -6 6 9 10 -10 16 -12 17 -14 14 -16 18 -18 20 19 -21 24 22 26 -25 -26 -27 -28 -29 -30 -31
leaf_value=-0.056994661724416286 -0.05704201132093694 -0.057145728828367076 -0.056351634333520889 0.057397880930184879 0.058269759001862265 -0.054214184980145901 -0.056699984382132806 0.056579612993076803 0.0013954881155439924 0.0061434334515350223 0.05694959008158576 -0.056891959618776605 0.0088779371649271351 -0.055874356976748446 -0.057172143992268082 0.0049216996421488669 0.056762275710333703 -0.055927197963099799 0.0021164825430408014 -0.056597457716086923 0.0007415265086876423 -0.056114788673164551 0.0037959768994724171 0.0089234639006612066 0.0062772140670677061 2.6524604427078082e-05 0.0013254461942381315 0.0033573218370804357 -0.057186209338921747 0.002392488505245715
leaf_weight=0.53308024117723141 0.017967110499739536 0.097972391638904588 0.040741592179983854 0.12837676331400871 0.58024704456329346 0.0065310162026435128 0.019645722117275 0.027037134394049644 0.029482156038284302 0.035842485725879669 0.032909493893384933 0.0073429276235401622 0.038578275591135025 0.014679930172860733 0.016039024572819471 0.068471848964691051 0.029673520475625992 0.004869478289037942 0.03103487566113472 0.018961580935865641 0.028984449803829193 0.010885857976973057 0.033302851021289825 0.075259517878293991 0.071711558848619461 0.028025971725583076 0.058493923395872116 0.096461974084377289 0.072350692003965378 0.030513113364577293
leaf_count=58 2 11 7 3 5 2 3 1 1 1 1 1 1 3 2 2 1 1 1 3 1 2 1 2 2 1 2 3 8 1
internal_value=1.08454e-09 0.0173378 -0.00246122 0.0223664 0.052024 -0.0149061 -0.00849149 0.0320338 -0.041069 -0.00191481 0.0160226 0.00812106 -0.0120679 -0.00622234 -0.00402653 -0.00206958 0.0290697 -0.00101412 -0.000192997 -0.0201513 0.0020011 0.00249732 -0.00396279 0.00497045 0.00415096 0.00342867 0.00222173 0.00400677 -0.0569401 0.00158822
internal_weight=2.28547 1.75239 1.1156 0.372487 0.636792 0.743115 0.645143 0.331745 0.108364 0.536779 0.203368 0.170459 0.0565454 0.471263 0.451617 0.435578 0.065516 0.143422 0.420898 0.0499965 0.136079 0.370902 0.102683 0.268219 0.131209 0.19296 0.0917968 0.164934 0.0788817 0.0594976
internal_count=133 75 67 18 8 49 38 11 11 27 8 7 3 25 22 20 2 6 17 4 5 13 5 8 4 6 3 5 10 2
is_linear=0
shrinkage=0.05


Tree=20
num_leaves=31
num_cat=0
split_feature=11 3 4 13 11 8 3 17 19 6 11 15 6 8 0 16 19 0 16 1 0 6 10 3 19 0 11 6 0 19
split_gain=0.842356 0.450298 0.125983 0.0985297 0.102227 0.0967511 0.0377878 0.0374372 0.0352041 0.0353479 0.0313473 0.0308701 0.0271014 0.0198945 0.0160662 0.00972791 0.0059001 0.0156037 0.00251285 0.00198661 0.0101606 0.00124944 0.00849763 0.00068019 9.77271e-05 8.93385e-05 6.49735e-05 2.69736e-05 2.02438e-05 1.29887e-05
threshold=0.0072455001063644895 0.27757000923156744 0.4083333313465119 0.48499999940395361 0.48702199757099157 0.84999999403953563 0.61905497312545787 0.84999999403953563 0.84392359852790844 0.86349999904632579 0.060980997979640968 0.25000000372529035 0.74149999022483837 0.59999999403953563 0.80795350670814525 0.59499999880790722 0.983333319425583 0.70265901088714611 0.9350000023841859 0.91999998688697826 0.80795350670814525 0.55899998545646679 0.69849997758865368 0.7639250159263612 0.95982140302658092 0.78221049904823314 0.45843149721622473 0.73774999380111705 0.7104800045490266 0.79067459702491771
decision_type=2 2 2 2 2 2 2 2 2 2 2 2 2 2 2 2 2 2 2 2 2 2 2 2 2 2 2 2 2 2
left_child=-1 5 10 -4 6 13 11 12 -6 14 28 -5 -8 -2 -10 -9 18 -18 21 -20 -21 22 -17 -23 26 -24 27 -25 -3 -7
right_child=1 2 3 4 8 29 7 15 9 -11 -12 -13 -14 -15 -16 16 17 -19 19 20 -22 23 25 24 -26 -27 -28 -29 -30 -31
leaf_value=-0.056596485731290239 -0.056633723954530674 -0.053767025262613156 -0.056303108821440753 0.0050076741119202727 0.057036083428067132 0.058083471462312776 0.0011560249593696528 -0.056842966585756688 -0.055554623493305234 0.056590850445358602 0.0013503250589026422 -0.056557823955391676 0.056311835810703127 0.0084505357605286283 0.0066896266270333182 -0.056400670438908486 0.0034970791274096034 -0.055954294127744469 0.0020579239873820651 -0.055992801352182486 0.00075264245511240337 0.0084085169862993664 0.0043553262553074129 0.0036047856029416655 8.0181706307909048e-05 0.00052895207931982801 0.0052221504950789683 0.0022704645873476265 -0.056738361351906741 0.057581019458358099
leaf_weight=0.50539060519076917 0.017010456882417091 0.006038904655724541 0.062238231999799609 0.034012984484434128 0.12099208682775497 0.34373718500137329 0.038285675225779525 0.0078443316742776714 0.014570372411981225 0.030952602624893188 0.029047558084130287 0.050729247741401196 0.053245356306433678 0.037905778735876083 0.035935889929533005 0.0067733670584857455 0.031672406941652298 0.016939711989834905 0.030573209747672081 0.010899232467636466 0.028558231890201569 0.073977377265691757 0.033396612852811813 0.065022237598896027 0.0276142917573452 0.028081707656383514 0.03462536633014679 0.090719804167747498 0.11290523130446672 0.20552778244018555
leaf_count=58 2 2 10 1 3 2 2 1 3 1 1 7 2 1 1 1 1 3 1 2 1 2 1 2 1 1 1 3 13 3
internal_value=1.25318e-09 0.0170275 -0.00237398 0.00446064 0.00883056 0.0515688 -0.000665689 0.00390412 0.0399282 0.0145175 -0.0452156 -0.0318473 0.0332412 -0.0117095 -0.011267 -0.00161317 -0.000708423 -0.0172198 0.00115716 -0.0075091 -0.014922 0.00284202 -0.0032485 0.0042658 0.00285987 0.00260754 0.00326309 0.00282754 -0.0565875 0.0578955
internal_weight=2.18522 1.67983 1.07565 0.92766 0.865422 0.604181 0.662971 0.578229 0.202451 0.0814589 0.147992 0.0847422 0.091531 0.0549162 0.0505063 0.486698 0.478854 0.0486121 0.430241 0.0700307 0.0394575 0.360211 0.0682517 0.291959 0.217982 0.0614783 0.190367 0.155742 0.118944 0.549265
internal_count=133 75 67 51 41 8 33 25 8 5 16 8 4 3 4 21 20 4 16 4 3 12 3 9 7 2 6 5 15 5
is_linear=0
shrinkage=0.05


Tree=21
num_leaves=31
num_cat=0
split_feature=11 3 4 8 13 11 3 17 19 6 11 15 6 8 0 16 19 0 16 1 0 6 10 3 19 0 11 6 0 19
split_gain=0.785679 0.421234 0.116761 0.0918128 0.0906803 0.0951264 0.0345675 0.0343143 0.0332863 0.032696 0.0301515 0.0292224 0.0255534 0.0185806 0.0147953 0.00906624 0.00527632 0.0145628 0.00220843 0.00177992 0.00950748 0.00109896 0.00787927 0.000585729 8.51221e-05 7.84147e-05 5.77796e-05 2.4414e-05 1.91153e-05 1.162e-05
threshold=0.0072455001063644895 0.27757000923156744 0.4083333313465119 0.84999999403953563 0.48499999940395361 0.48702199757099157 0.61905497312545787 0.84999999403953563 0.84392359852790844 0.86349999904632579 0.060980997979640968 0.25000000372529035 0.74149999022483837 0.59999999403953563 0.80795350670814525 0.59499999880790722 0.983333319425583 0.70265901088714611 0.9350000023841859 0.91999998688697826 0.80795350670814525 0.55899998545646679 0.69849997758865368 0.7639250159263612 0.95982140302658092 0.78221049904823314 0.45843149721622473 0.73774999380111705 0.7104800045490266 0.79067459702491771
decision_type=2 2 2 2 2 2 2 2 2 2 2 2 2 2 2 2 2 2 2 2 2 2 2 2 2 2 2 2 2 2
left_child=-1 3 10 13 -4 6 11 12 -7 14 28 -6 -8 -2 -10 -9 18 -18 21 -20 -21 22 -17 -23 26 -24 27 -25 -3 -5
right_child=1 2 4 29 5 8 7 15 9 -11 -12 -13 -14 -15 -16 16 17 -19 19 20 -22 23 25 24 -26 -27 -28 -29 -30 -31
leaf_value=-0.056237470206883182 -0.056266553277825926 -0.053370167612199364 -0.055917670342678541 0.057735661075149269 0.0047651523188649353 0.056710032694403417 0.0013998247691807599 -0.056454401149385852 -0.0551177399406695 0.056269572408228996 0.0013093112926684345 -0.056179010195752527 0.055988010070695031 0.0080514702529355438 0.0063561671151467674 -0.056013984303049429 0.0033193552608650049 -0.055565336146440818 0.0020007694499092937 -0.055606090500932182 0.00076134826654581939 0.0079402146182054531 0.0041592383912836418 0.0034543008527183356 0.00012653897652471617 0.00054328823917217334 0.0049867334243626745 0.0021738193223885182 -0.056369560194136359 0.05724683293935743
leaf_weight=0.47865732642822001 0.016089209355413803 0.005589709384366647 0.058304723585024476 0.32537810504436493 0.033411324024200439 0.11391882225871086 0.037565506761893741 0.0073922886513172461 0.013546275207772851 0.029081216081976891 0.028557119891047478 0.047823190223425627 0.049936894327402115 0.037170607596635818 0.035276215523481369 0.0063569513149559489 0.03112754225730896 0.015844329260289669 0.030053297057747841 0.010197969153523445 0.028076827526092529 0.072571039199829102 0.032811772078275681 0.063896503299474716 0.027149664238095284 0.027608856558799744 0.034007839858531952 0.089178016409277916 0.10689849266782403 0.19408955425024033
leaf_count=58 2 2 10 2 1 3 2 1 3 1 1 7 2 1 1 1 1 3 1 2 1 2 1 2 1 1 1 3 13 3
internal_value=3.515e-10 0.0167309 -0.0022896 0.0511429 0.00437286 0.00857349 -0.00061974 0.00377404 0.039486 0.0142993 -0.0445726 -0.031113 0.0325528 -0.0113783 -0.0107004 -0.0015133 -0.000647103 -0.0165433 0.00112265 -0.00710635 -0.0142572 0.00271288 -0.003064 0.00405793 0.00274281 0.00250695 0.00312249 0.00270832 -0.0562205 0.057553
internal_weight=2.08757 1.60891 1.03618 0.572727 0.895137 0.836832 0.64501 0.563775 0.191823 0.0779037 0.141045 0.0812345 0.0875024 0.0532598 0.0488225 0.476273 0.468881 0.0469719 0.421909 0.0683281 0.0382748 0.353581 0.0667776 0.286803 0.214232 0.0604206 0.187082 0.153075 0.112488 0.519468
internal_count=133 75 67 8 51 41 33 25 8 5 16 8 4 3 4 21 20 4 16 4 3 12 3 9 7 2 6 5 15 5
is_linear=0
shrinkage=0.05


Tree=22
num_leaves=31
num_cat=0
split_feature=11 3 4 8 13 11 3 19 17 6 11 15 17 8 0 16 19 0 16 1 0 6 10 3 19 0 11 6 0 19
split_gain=0.732791 0.393967 0.108179 0.0873162 0.0836151 0.0886 0.0315789 0.0314037 0.031356 0.0302045 0.0289805 0.0276448 0.0241903 0.0173997 0.0135821 0.00849268 0.00471446 0.0135834 0.00193755 0.00159067 0.00888141 0.000968015 0.00730763 0.000505055 7.41317e-05 6.88021e-05 5.12795e-05 2.19907e-05 1.78334e-05 1.03271e-05
threshold=0.0072455001063644895 0.27757000923156744 0.4083333313465119 0.84999999403953563 0.48499999940395361 0.48702199757099157 0.61905497312545787 0.84392359852790844 0.84999999403953563 0.86349999904632579 0.060980997979640968 0.25000000372529035 0.59999999403953563 0.59999999403953563 0.80795350670814525 0.59499999880790722 0.983333319425583 0.70265901088714611 0.9350000023841859 0.91999998688697826 0.80795350670814525 0.55899998545646679 0.69849997758865368 0.7639250159263612 0.95982140302658092 0.78221049904823314 0.45843149721622473 0.73774999380111705 0.7104800045490266 0.79067459702491771
decision_type=2 2 2 2 2 2 2 2 2 2 2 2 2 2 2 2 2 2 2 2 2 2 2 2 2 2 2 2 2 2
left_child=-1 3 10 13 -4 6 11 -7 12 14 28 -6 -8 -2 -9 -10 18 -18 21 -20 -21 22 -17 -23 26 -24 27 -25 -3 -5
right_child=1 2 4 29 5 7 8 9 15 -11 -12 -13 -14 -15 -16 16 17 -19 19 20 -22 23 25 24 -26 -27 -28 -29 -30 -31
leaf_value=-0.055910371467142631 -0.055943130404046207 -0.053017273372546608 -0.05557673052266443 0.057417516803794588 0.004542661609697342 0.05641651129765133 0.0015277688561159614 -0.054707372754419226 -0.056115864546855902 0.055982135728336546 0.0012756332107776856 -0.055838194364383288 0.05569941245764564 0.0076786002815404071 0.0060480538115381833 -0.055667280886204464 0.0031602649108536615 -0.055215874438508186 0.0019478214130683189 -0.055262283247597258 0.00077006945600441084 0.0075126871143431518 0.003978466021680253 0.0033153948077715018 0.00017170217553143165 0.00055858758917736308 0.0047682530780742945 0.0020883264930737209 -0.056034234373673664 0.056943304602014314
leaf_weight=0.45285180816426884 0.015251690521836059 0.0051475719083100549 0.054639325244352221 0.30774479359388351 0.032756038010120392 0.10715642385184765 0.036833337973803282 0.012535191373899579 0.0069903200492265052 0.027294885367155075 0.02801869809627533 0.044996393844485283 0.046782786026596801 0.036382168531417847 0.034562312066555023 0.0059599513188004485 0.030531328171491623 0.014793404610827565 0.029483230784535408 0.0095145311206579208 0.027548506855964661 0.071059044450521469 0.032173715531826019 0.062665924429893494 0.026639454066753387 0.027089875191450119 0.033336184918880463 0.087487446144223213 0.10110594006255269 0.18312641605734825
leaf_count=58 2 2 10 2 1 3 2 3 1 1 1 7 2 1 1 1 1 3 1 2 1 2 1 2 1 1 1 3 13 3
internal_value=-2.67491e-10 0.0164452 -0.0022112 0.0507348 0.00428564 0.00833275 -0.000578061 0.0390897 0.00364642 0.0141317 -0.0439597 -0.0304006 0.0318365 -0.0111141 -0.0101222 -0.00141974 -0.000585442 -0.0158929 0.00109465 -0.00671942 -0.0136141 0.00259575 -0.00289221 0.00386872 0.00263645 0.00241521 0.00299428 0.00260044 -0.0558881 0.0572406
internal_weight=1.99246 1.53961 0.997102 0.542505 0.86283 0.80819 0.626641 0.181549 0.548889 0.0743924 0.134272 0.0777524 0.0836161 0.0516339 0.0470975 0.465273 0.458283 0.0453247 0.412958 0.0665463 0.037063 0.346412 0.0652235 0.281188 0.210129 0.0592636 0.18349 0.150153 0.106254 0.490871
internal_count=133 75 67 8 51 41 33 8 25 5 16 8 4 3 4 21 20 4 16 4 3 12 3 9 7 2 6 5 15 5
is_linear=0
shrinkage=0.05


Tree=23
num_leaves=31
num_cat=0
split_feature=11 3 4 8 13 11 19 3 17 6 11 15 17 8 0 16 19 0 16 1 0 6 10 3 19 0 11 6 0 19
split_gain=0.683697 0.368562 0.100253 0.0828601 0.0770102 0.0824232 0.0297028 0.0288228 0.0286418 0.027966 0.0278138 0.0261218 0.0229045 0.0162503 0.0125044 0.00791682 0.00418356 0.0126272 0.00171117 0.0014285 0.00831107 0.000854193 0.00677615 0.000436814 6.4773e-05 6.0467e-05 4.55788e-05 1.97855e-05 1.64956e-05 9.11375e-06
threshold=0.0072455001063644895 0.27757000923156744 0.4083333313465119 0.84999999403953563 0.48499999940395361 0.48702199757099157 0.84392359852790844 0.61905497312545787 0.84999999403953563 0.86349999904632579 0.060980997979640968 0.25000000372529035 0.59999999403953563 0.59999999403953563 0.80795350670814525 0.59499999880790722 0.983333319425583 0.70265901088714611 0.9350000023841859 0.91999998688697826 0.80795350670814525 0.55899998545646679 0.69849997758865368 0.7639250159263612 0.95982140302658092 0.78221049904823314 0.45843149721622473 0.73774999380111705 0.7104800045490266 0.79067459702491771
decision_type=2 2 2 2 2 2 2 2 2 2 2 2 2 2 2 2 2 2 2 2 2 2 2 2 2 2 2 2 2 2
left_child=-1 3 10 13 -4 7 -7 11 12 14 28 -6 -9 -2 -8 -10 18 -18 21 -20 -21 22 -17 -23 26 -24 27 -25 -3 -5
right_child=1 2 4 29 5 6 9 8 15 -11 -12 -13 -14 -15 -16 16 17 -19 19 20 -22 23 25 24 -26 -27 -28 -29 -30 -31
leaf_value=-0.055611304838221215 -0.055638273798206586 -0.052703098607394805 -0.055265293731508451 0.057124307776358255 0.0043292791245294017 0.056150716815496604 -0.054364458282092 0.0016210309233513995 -0.055796776041846602 0.0557235476572574 0.0012327183302890763 -0.055526848306650611 0.055441194481620597 0.0073236955222101474 0.0057563942437419933 -0.05535519064150897 0.0030059888951535106 -0.054883818030043864 0.0018866938519572782 -0.054964775029791482 0.00076608648382183678 0.0071146770412568649 0.003801340341654818 0.0031768114582206917 0.00019999199717342793 0.00056083401225161895 0.0045575039012732271 0.0020003682274620099 -0.055727484102374297 0.056665720152213009
leaf_weight=0.42813904397189628 0.014400103129446284 0.0047318022698163978 0.051089932909235358 0.2908608615398407 0.032048534601926804 0.10071032866835594 0.011623166734352708 0.036040016682818532 0.0065764244645836181 0.025594649836421013 0.027431920170783997 0.042266114382073283 0.043784888461231963 0.035543501377105713 0.033796370029449463 0.0055828713811933986 0.029884252697229385 0.013755843276157975 0.028862982988357544 0.0088961210567504168 0.026972092688083649 0.069445744156837463 0.031483672559261322 0.061332026496529579 0.026082368567585945 0.026523252949118614 0.032611910253763199 0.085647402331233025 0.095545709133148193 0.17265036702156067
leaf_count=58 2 2 10 2 1 3 3 2 1 1 1 7 2 1 1 1 1 3 1 2 1 2 1 2 1 1 1 3 13 3
internal_value=-4.82533e-11 0.0161773 -0.00213741 0.0503602 0.00420385 0.00810146 0.0386889 -0.000540605 0.00352323 0.0139251 -0.0433804 -0.0297136 0.031142 -0.01083 -0.00962894 -0.00133654 -0.000535443 -0.0152415 0.00105531 -0.00639344 -0.0130564 0.00247885 -0.00274392 0.00368602 0.00252833 0.00231964 0.00286648 0.00249128 -0.0555848 0.0569535
internal_weight=1.89991 1.47178 0.95832 0.513455 0.830611 0.779521 0.171725 0.607797 0.533482 0.0710142 0.127709 0.0743146 0.0798249 0.0499436 0.0454195 0.453657 0.447081 0.0436401 0.40344 0.0647312 0.0358682 0.338709 0.0635898 0.275119 0.205674 0.0580069 0.179591 0.146979 0.100278 0.463511
internal_count=133 75 67 8 51 41 8 33 25 5 16 8 4 3 4 21 20 4 16 4 3 12 3 9 7 2 6 5 15 5
is_linear=0
shrinkage=0.05


Tree=24
num_leaves=31
num_cat=0
split_feature=11 3 4 8 13 11 19 11 3 17 6 15 17 8 0 16 19 0 16 1 0 6 10 3 19 0 11 6 0 19
split_gain=0.637758 0.344832 0.0928312 0.0786089 0.0710218 0.0766809 0.0280889 0.0266738 0.0263478 0.0261214 0.0258984 0.0246867 0.0217097 0.0151774 0.0115121 0.00738045 0.00374276 0.011774 0.00150308 0.00127572 0.00775077 0.000754421 0.00628483 0.000377947 5.65004e-05 5.30444e-05 4.03569e-05 1.7726e-05 1.51329e-05 7.98834e-06
threshold=0.0072455001063644895 0.27757000923156744 0.4083333313465119 0.84999999403953563 0.48499999940395361 0.48702199757099157 0.84392359852790844 0.060980997979640968 0.61905497312545787 0.84999999403953563 0.86349999904632579 0.25000000372529035 0.59999999403953563 0.59999999403953563 0.80795350670814525 0.59499999880790722 0.983333319425583 0.70265901088714611 0.9350000023841859 0.91999998688697826 0.80795350670814525 0.55899998545646679 0.69849997758865368 0.7639250159263612 0.95982140302658092 0.78221049904823314 0.45843149721622473 0.73774999380111705 0.7104800045490266 0.79067459702491771
decision_type=2 2 2 2 2 2 2 2 2 2 2 2 2 2 2 2 2 2 2 2 2 2 2 2 2 2 2 2 2 2
left_child=-1 3 7 13 -4 8 -7 28 11 12 14 -6 -10 -2 -8 -11 18 -18 21 -20 -21 22 -17 -23 26 -24 27 -25 -3 -5
right_child=1 2 4 29 5 6 10 -9 9 15 -12 -13 -14 -15 -16 16 17 -19 19 20 -22 23 25 24 -26 -27 -28 -29 -30 -31
leaf_value=-0.055336027417840321 -0.055358690541659684 -0.052423095712932223 -0.054987497378491658 0.056852111807574462 0.0041350633557527524 0.055908242198181524 -0.054059899714371806 0.0012009641739955585 0.0016655840407591835 -0.055505688225140765 0.055489484209806109 -0.055246468620120982 0.055208669428767287 0.0069934559540044995 0.0054887802867010262 -0.055073044294461741 0.0028698593341318669 -0.054606277988082187 0.0018346952144394511 -0.054685119422028784 0.00076827595603794739 0.0067513414856242952 0.0036410078275787199 0.0030518794951944943 0.00023315715437636659 0.00057038207363985835 0.0043627935536754417 0.0019253012861078984 -0.05544520709163045 0.056409977221222457
leaf_weight=0.40437427232973289 0.01358455605804898 0.0043417164124548427 0.047786104725673795 0.27470468729734421 0.031297829002141953 0.094575555995106697 0.010764772072434425 0.026806624606251717 0.035215168492868543 0.006181965582072956 0.023979466408491135 0.039708304451778531 0.040941618382930534 0.034662347286939621 0.032986678183078766 0.0052249301224946967 0.029195671901106834 0.01282397867180407 0.028202321380376816 0.0082809636369347572 0.026358012109994888 0.067747414112091064 0.03075052797794342 0.059913355857133865 0.025488914921879768 0.025919543579220772 0.031844139099121094 0.083687735721468925 0.090183269698172808 0.16265084967017174
leaf_count=58 2 2 10 2 1 3 3 1 2 1 1 7 2 1 1 1 1 3 1 2 1 2 1 2 1 1 1 3 13 3
internal_value=2.34937e-09 0.0159171 -0.00207191 0.050006 0.00411711 0.00787749 0.0383058 -0.0428218 -0.000510517 0.00340638 0.0137267 -0.0290725 0.0304502 -0.0105626 -0.0091628 -0.00125729 -0.000487119 -0.0146713 0.00102784 -0.00606055 -0.0124887 0.00237532 -0.00260127 0.00352176 0.00243286 0.00223658 0.00275244 0.00239533 -0.0553064 0.0566877
internal_weight=1.81018 1.40581 0.920207 0.485602 0.798875 0.751089 0.162306 0.121332 0.588782 0.517776 0.0677309 0.0710061 0.0761568 0.0482469 0.0437515 0.441619 0.435438 0.0420197 0.393418 0.0628413 0.034639 0.330577 0.061895 0.268682 0.200934 0.0566701 0.175445 0.143601 0.094525 0.437356
internal_count=133 75 67 8 51 41 8 16 33 25 5 8 4 3 4 21 20 4 16 4 3 12 3 9 7 2 6 5 15 5
is_linear=0
shrinkage=0.05


Tree=25
num_leaves=31
num_cat=0
split_feature=11 3 4 8 13 11 19 11 3 6 17 15 17 8 0 16 19 11 16 1 0 6 10 3 11 0 19 0 6 0
split_gain=0.594788 0.322687 0.0859796 0.0745036 0.0655595 0.0713236 0.0265577 0.0255552 0.0240594 0.0239896 0.0238204 0.0233069 0.0205671 0.0141623 0.0105963 0.00691371 0.00334904 0.0109739 0.0013207 0.00113853 0.00722197 0.000667158 0.00582902 0.000327306 4.97819e-05 4.65424e-05 3.65118e-05 1.37886e-05 9.13706e-06 7.64724e-06
threshold=0.0072455001063644895 0.27757000923156744 0.4083333313465119 0.84999999403953563 0.48499999940395361 0.48702199757099157 0.84392359852790844 0.060980997979640968 0.61905497312545787 0.86349999904632579 0.84999999403953563 0.25000000372529035 0.59999999403953563 0.59999999403953563 0.80795350670814525 0.59499999880790722 0.983333319425583 0.034738499671220786 0.9350000023841859 0.91999998688697826 0.80795350670814525 0.55899998545646679 0.69849997758865368 0.7639250159263612 0.45843149721622473 0.78221049904823314 0.90958333015441906 0.7104800045490266 0.76600000262260448 0.7814529836177827
decision_type=2 2 2 2 2 2 2 2 2 2 2 2 2 2 2 2 2 2 2 2 2 2 2 2 2 2 2 2 2 2
left_child=-1 3 7 13 -4 8 -7 27 11 14 12 -6 -10 -2 -8 -12 18 -18 21 -20 -21 22 -17 -23 26 -24 28 -3 -25 -28
right_child=1 2 4 -5 5 6 9 -9 10 -11 15 -13 -14 -15 -16 16 17 -19 19 20 -22 23 25 24 -26 -27 29 -29 -30 -31
leaf_value=-0.055081398108484225 -0.05509916942065151 -0.052173249954716776 -0.054737414077499297 0.056439903133719251 0.0039538079257210165 0.055685625488586257 -0.053788878462194545 0.0011711804417160038 0.001693613323627782 0.055276316948907361 -0.055249966213596818 -0.054988049621033944 0.054998295678374887 0.0066834851134987541 0.0052388856103504512 -0.054816851365072763 -0.054356518013530211 0.0027444085884457377 0.0017837730906762076 -0.054431348808496365 0.0007700650160264483 0.0064151556494244409 0.0034907351693552928 0.0029341764010755054 0.0041804252841539952 0.00057800967625771117 0.0014822346703808318 -0.055185389510281582 0.0020363118948439583 0.0002624028585579216
leaf_weight=0.38158459728583705 0.012791931629180686 0.0039769338909536591 0.044693098636344075 0.4124089702963829 0.030507327988743782 0.088750600814819336 0.009959046496078372 0.026145156472921371 0.03434312273748219 0.022448856383562088 0.0058334474451842136 0.037250455236062407 0.038251336663961188 0.033743072301149368 0.032137379050254822 0.0048861238174140445 0.011944673024117947 0.028468623757362366 0.027503965422511101 0.0076997012365609399 0.025707943364977837 0.065972346812486649 0.029977675527334213 0.058416334912180901 0.031036205589771271 0.025280797854065895 0.026590345427393913 0.085086845327168703 0.055025435984134674 0.024860905483365059
leaf_count=58 2 2 10 5 1 3 3 1 2 1 1 7 2 1 1 1 3 1 1 2 1 2 1 2 1 1 1 13 2 1
internal_value=2.61773e-11 0.0156654 -0.00201506 0.0496728 0.00403053 0.00766408 0.0379378 -0.042292 -0.000484065 0.0135342 0.00329217 -0.02845 0.0297808 -0.0102998 -0.00872573 -0.00118805 -0.000443151 -0.0141325 0.00100148 -0.00575009 -0.0119526 0.00227847 -0.00247047 0.00336904 0.00234337 0.00215816 0.0019976 -0.0550509 0.00249866 0.00089282
internal_weight=1.72328 1.3417 0.882755 0.458944 0.767546 0.722853 0.153296 0.115209 0.569557 0.0645453 0.501799 0.0677578 0.0725945 0.046535 0.0420964 0.429205 0.423371 0.0404133 0.382958 0.0609116 0.0334076 0.322046 0.0601446 0.261902 0.195929 0.0552585 0.164893 0.0890638 0.113442 0.0514513
internal_count=133 75 67 8 51 41 8 16 33 5 25 8 4 3 4 21 20 4 16 4 3 12 3 9 7 2 6 15 4 2
is_linear=0
shrinkage=0.05


Tree=26
num_leaves=31
num_cat=0
split_feature=11 3 19 8 13 11 15 19 6 1 8 2 9 16 0 16 21 13 13 8 0 13 19 0 3 0 0 11 0 13
split_gain=0.554968 0.301756 0.0797015 0.0706335 0.0529537 0.0663338 0.0357838 0.025102 0.0222245 0.0213223 0.0132241 0.0124465 0.0123098 0.0235831 0.00975132 0.00655655 0.00641401 0.00363442 0.0249867 0.0012417 0.000132319 0.000127057 0.00022745 5.53209e-05 2.15778e-05 1.02286e-05 7.30016e-06 9.12425e-06 6.7465e-06 6.35786e-06
threshold=0.0072455001063644895 0.27757000923156744 0.64959490299224865 0.84999999403953563 0.48499999940395361 0.48702199757099157 0.87500000000000011 0.84392359852790844 0.86349999904632579 0.58000001311302196 0.59999999403953563 0.75000000000000011 0.62500000000000011 0.62500000000000011 0.80795350670814525 0.66500002145767223 0.52500000596046459 0.73500001430511486 0.86500000953674328 0.40000000596046453 0.80795350670814525 0.64499998092651378 0.92430555820465099 0.80795350670814525 0.91547000408172619 0.728388011455536 0.78221049904823314 0.034738499671220786 0.78221049904823314 0.074999999254941954
decision_type=2 2 2 2 2 2 2 2 2 2 2 2 2 2 2 2 2 2 2 2 2 2 2 2 2 2 2 2 2 2
left_child=29 3 6 10 -4 9 -3 -7 14 -6 -2 -11 13 -13 -9 -15 -17 21 25 20 -20 22 24 26 28 -19 27 -23 -18 -1
right_child=1 2 4 -5 5 7 -8 8 -10 11 -12 12 -14 15 -16 16 17 18 19 -21 -22 23 -24 -25 -26 -27 -28 -29 -30 -31
leaf_value=-0.051881125066693651 -0.054860618614276269 -0.054922584669050992 -0.054435368510459159 0.056207456149708929 0.054703447151226318 0.055479818527137618 0.0065933180327145879 -0.053547167980463307 0.055080811345408633 -0.055006747078704947 0.006392264463266014 0.054899781887702219 -0.054904192331253848 -0.052299148837602921 0.0050068712622917998 -0.055025027062922144 0.001591116217844053 -0.051928371987475422 0.0059630235979295943 -0.0070558740958840032 0.0017431606732371788 0.0035711766835079179 -0.0033002595590718325 0.00077310715940543068 0.0025613042746641486 -0.054819849798681042 0.0040104536829105872 0.0026791582576321184 0.0005883372230512632 -0.05486100908294498
leaf_weight=0.0017989891348407774 0.012049358803778665 0.091696084011346102 0.036326322588138282 0.38864969462156296 0.016927767544984818 0.08322988823056221 0.031851973384618759 0.0092042777687311172 0.021001141518354416 0.01097124395892024 0.032792150974273682 0.018783388659358025 0.010447305161505938 0.0064441709546372286 0.031254567205905914 0.0055375169031321994 0.052659062668681145 0.0036058968398720017 0.0630990881472826 0.029855805449187756 0.026327414438128471 0.05885419063270092 0.025992697454057634 0.025028068572282791 0.055905139073729515 0.020149501971900463 0.030194422230124474 0.055892230942845345 0.02461240254342556 0.35815403563901782
leaf_count=1 2 15 9 5 1 3 1 3 1 2 1 1 2 3 1 1 2 2 2 2 1 2 2 1 2 4 1 2 1 57
internal_value=1.7745e-09 0.0154314 -0.00195254 0.0493518 0.00439512 0.00751053 -0.0390631 0.0375836 0.0133483 -0.000528212 -0.010067 -0.00231124 -0.00118512 -6.92491e-05 -0.00831401 -0.00220183 -0.00152604 -0.000898617 -0.00755287 0.00177307 0.00472068 0.00199321 0.000978044 0.00294387 0.00181306 -0.0543809 0.00331871 0.00313668 0.00127171 -0.0548461
internal_weight=1.6393 1.27934 0.845852 0.433491 0.722304 0.685977 0.123548 0.14469 0.06146 0.541287 0.0448415 0.52436 0.513388 0.502941 0.0404588 0.484158 0.477713 0.472176 0.143038 0.119282 0.0894265 0.329138 0.159169 0.169969 0.133177 0.0237554 0.144941 0.114746 0.0772715 0.359953
internal_count=133 75 67 8 51 42 16 8 5 34 3 33 31 29 4 28 25 24 11 5 3 13 7 6 5 6 5 4 3 58
is_linear=0
shrinkage=0.05


Tree=27
num_leaves=31
num_cat=0
split_feature=11 3 19 8 13 11 15 19 6 1 8 2 9 16 0 16 21 13 13 4 13 19 0 0 3 0 0 11 0 13
split_gain=0.51773 0.282124 0.0741572 0.0669511 0.048838 0.0615323 0.0338151 0.023723 0.0205967 0.0196863 0.012347 0.0116289 0.011476 0.0217996 0.00896849 0.00597347 0.00599005 0.00317483 0.0233804 0.00096117 0.000109151 0.000187716 0.000106517 4.89971e-05 1.92558e-05 9.29695e-06 6.59255e-06 8.18622e-06 6.02408e-06 5.70428e-06
threshold=0.0072455001063644895 0.27757000923156744 0.64959490299224865 0.84999999403953563 0.48499999940395361 0.48702199757099157 0.87500000000000011 0.84392359852790844 0.86349999904632579 0.58000001311302196 0.59999999403953563 0.75000000000000011 0.62500000000000011 0.62500000000000011 0.80795350670814525 0.66500002145767223 0.52500000596046459 0.73500001430511486 0.86500000953674328 0.90833333134651195 0.64499998092651378 0.92430555820465099 0.71718597412109386 0.80795350670814525 0.91547000408172619 0.728388011455536 0.78221049904823314 0.034738499671220786 0.78221049904823314 0.074999999254941954
decision_type=2 2 2 2 2 2 2 2 2 2 2 2 2 2 2 2 2 2 2 2 2 2 2 2 2 2 2 2 2 2
left_child=29 3 6 10 -4 9 -3 -7 14 -6 -2 -11 13 -13 -9 -15 -17 20 25 22 21 24 -20 26 28 -19 27 -22 -18 -1
right_child=1 2 4 -5 5 7 -8 8 -10 11 -12 12 -14 15 -16 16 17 18 19 -21 23 -23 -24 -25 -26 -27 -28 -29 -30 -31
leaf_value=-0.051688882767017955 -0.05464091514838687 -0.054702633380691028 -0.054223813109781853 0.055985835541002907 0.054526250802701196 0.055285717574128035 0.0062350165457592029 -0.053331843170166142 0.054897687636701865 -0.054780849726716888 0.0061124983239757066 0.054719971880925068 -0.054681975450814393 -0.052062228523441181 0.004778607239924914 -0.054798439213801745 0.0015180162297042815 -0.051731455294317101 0.0056571504074159062 -0.0059111779847527898 0.0034103491975431229 -0.0029848231896265854 0.0017689960210140899 0.00073723846445092073 0.0024479261116143393 -0.054600230831813402 0.0038353486635406375 0.0025529557328505055 0.00055649966813838025 -0.054642155018420263
leaf_weight=0.0016430175164715557 0.01134551642462589 0.086433249991387129 0.033864511991851032 0.36607549712061882 0.01577913761138916 0.078005023300647736 0.030905881896615028 0.0084999920800328255 0.019633239135146141 0.010295903775840998 0.031812321394681931 0.017535408958792686 0.0097932503558695316 0.0058983765775337807 0.030338635668158531 0.0051977424882352343 0.051144599914550781 0.0033212101552635423 0.061234226450324059 0.029575807973742485 0.057150537148118019 0.025220344192348421 0.024727767333388329 0.024307331070303917 0.054294582456350327 0.018869997002184391 0.029317451640963554 0.054281698539853096 0.023903157562017441 0.3376346081495285
leaf_count=1 2 15 9 5 1 3 1 3 1 2 1 1 2 3 1 1 2 2 2 2 2 2 1 1 2 4 1 2 1 57
internal_value=1.82782e-09 0.0152072 -0.00189685 0.0490419 0.00433389 0.00734612 -0.0386523 0.0372374 0.0131598 -0.000471216 -0.00985862 -0.00218603 -0.00109377 -1.38853e-05 -0.0079391 -0.00206275 -0.00142516 -0.000818575 -0.00716473 0.00186369 0.00191608 0.000961236 0.00453869 0.00281021 0.00173068 -0.0541709 0.00316821 0.00299269 0.00121177 -0.0546279
internal_weight=1.55804 1.21876 0.809529 0.409233 0.69219 0.658325 0.117339 0.136477 0.0584719 0.521849 0.0431578 0.506069 0.495773 0.48598 0.0388386 0.468445 0.462546 0.457349 0.137729 0.115538 0.31962 0.154563 0.085962 0.165057 0.129342 0.0221912 0.14075 0.111432 0.0750478 0.339278
internal_count=133 75 67 8 51 42 16 8 5 34 3 33 31 29 4 28 25 24 11 5 13 7 3 6 5 6 5 4 3 58
is_linear=0
shrinkage=0.05


Tree=28
num_leaves=31
num_cat=0
split_feature=11 3 19 8 13 11 15 19 6 1 8 2 9 16 0 16 21 13 13 8 13 3 0 0 6 0 0 11 13 4
split_gain=0.483218 0.263602 0.0688979 0.0634103 0.0449904 0.0572583 0.0319521 0.0222746 0.019001 0.0181817 0.0115304 0.010858 0.0106923 0.0201586 0.00816865 0.00541827 0.00558997 0.00283542 0.0217571 0.000930818 9.38147e-05 0.000179005 7.04838e-05 4.31271e-05 1.4462e-05 8.34878e-06 5.91552e-06 7.28845e-06 5.06744e-06 4.97887e-06
